89 100
! 0.011733091 -0.070648938 0.23294343 0.24038464 -0.011184791 0.17316104 -0.034563132 0.10036705 0.22818226 0.10954339 0.0074934592 -0.20374851 0.077944003 -0.012520856 0.1230973 -0.36873519 0.083313994 0.15015572 0.1104389 -0.12525617 -0.081063777 0.089890704 -0.054940719 -0.15507297 -0.046916947 0.11563575 -0.056506589 -0.0042003607 -0.10410383 -0.071722753 0.20993301 -0.03047891 -0.056993436 -0.032421127 -0.091983579 0.18852113 0.2602092 0.10254488 -0.077702463 0.019156327 0.048472673 0.15936938 -0.17402361 0.0316859 -0.081524618 -0.18767565 -0.096117891 0.2562733 -0.052069072 0.29190138 0.15822038 -0.41648591 -0.27309987 -0.15966003 0.075829878 0.067288317 0.1098856 0.020393025 0.14684869 0.054577682 0.21068512 0.032344274 0.0034953407 0.034996979 0.15172625 0.45385018 0.011942895 -0.22360528 0.10369278 -0.46557924 -0.013893456 0.32562527 0.20211481 -0.049482372 0.14617479 0.069110341 0.26761368 -0.2152835 -0.24851619 0.0082415901 0.15266262 -0.24448861 0.12979454 -0.1234308 -0.23246135 0.037909329 0.11677221 0.1642576 -0.18032716 0.13869303 0.077373415 0.18788357 -0.090501152 -0.015086722 -0.13666908 -0.049602207 0.064291649 0.092075847 -0.1312878 0.012679833
love 0.017583394 -0.077354364 0.2441503 0.25320497 -0.01834017 0.18136571 -0.043901853 0.10171156 0.23836762 0.11367112 0.014118518 -0.2172008 0.080889843 -0.013445063 0.13208631 -0.39075452 0.076867782 0.16283697 0.11250836 -0.13997379 -0.084035859 0.091950007 -0.061584149 -0.16741052 -0.051024057 0.12268059 -0.058360863 -0.0087851342 -0.10824954 -0.068632774 0.22103357 -0.034245141 -0.064168811 -0.038014986 -0.10229359 0.19457626 0.28159502 0.10390557 -0.075755008 0.019339103 0.057749476 0.16944428 -0.17515944 0.024354381 -0.084614843 -0.20527229 -0.093296923 0.2658276 -0.047315408 0.30767721 0.1647592 -0.44107696 -0.29855344 -0.17216131 0.084882103 0.072350644 0.11463378 0.02602328 0.1565865 0.052326187 0.22351386 0.037130892 -0.0024777066 0.045951605 0.15104455 0.46899763 0.0088878758 -0.23447786 0.10978796 -0.48754451 -0.022331864 0.33645257 0.20798022 -0.050138362 0.15232509 0.062940061 0.2806094 -0.23107822 -0.26120016 0.00573008 0.1573872 -0.26620486 0.13588008 -0.13913937 -0.24249314 0.045935947 0.12646468 0.18000834 -0.19269361 0.14025798 0.078570597 0.19544674 -0.091164775 -0.012931343 -0.14743155 -0.048826508 0.065053679 0.098823018 -0.1315764 0.012617284
echo 0.015614732 -0.077330276 0.27971637 0.28188998 -0.012732121 0.19657697 -0.045170367 0.099568337 0.26630276 0.11424586 0.013338976 -0.23579815 0.084719256 -0.018919559 0.15414441 -0.41211796 0.082371198 0.17576246 0.12229905 -0.14366882 -0.094220683 0.095036507 -0.06717407 -0.18323018 -0.051929392 0.131245 -0.064337388 -0.010626952 -0.11916952 -0.073552407 0.2332578 -0.035956047 -0.073757984 -0.04395888 -0.1060978 0.21162677 0.29304722 0.11725417 -0.076643512 0.014169994 0.063022658 0.17764378 -0.19309375 0.035153661 -0.095356636 -0.21907537 -0.10546165 0.29002568 -0.058520388 0.33710951 0.17601007 -0.47792101 -0.31804031 -0.18128438 0.082007356 0.089058131 0.12472534 0.037557043 0.15937491 0.057948232 0.24271061 0.02894051 0.0051210988 0.052739527 0.17007071 0.50965238 0.0055621639 -0.25761211 0.11841038 -0.5216186 -0.01651502 0.36274514 0.2221307 -0.048868008 0.1627422 0.070842944 0.31318536 -0.246713 -0.28594244 0.0087626539 0.17183959 -0.28432539 0.15347512 -0.15153597 -0.2588754 0.051502828 0.142775 0.20229463 -0.20198376 0.14630356 0.083356202 0.20337385 -0.090523541 -0.0039080903 -0.16833666 -0.050236594 0.069730029 0.11183736 -0.14646354 0.013782456
it 0.0085356189 -0.072731912 0.25338352 0.25384048 -0.013883225 0.18146436 -0.039835718 0.10136784 0.23767459 0.10918002 0.017186057 -0.20798339 0.079387434 -0.0098168626 0.13989986 -0.38534713 0.083448425 0.15930504 0.114738 -0.13762471 -0.079761565 0.093448833 -0.064175628 -0.16138543 -0.052372668 0.12090467 -0.067814343 -0.014411115 -0.10871761 -0.06793233 0.22124077 -0.030786352 -0.069155701 -0.041563224 -0.097835258 0.19551179 0.27216306 0.10372183 -0.078872137 0.0091070179 0.058153369 0.16835044 -0.17358629 0.03351032 -0.089867853 -0.20218173 -0.1012251 0.26851049 -0.051238246 0.30893564 0.16324699 -0.43797436 -0.28941232 -0.16828364 0.077881418 0.076349564 0.11841118 0.029019402 0.15499508 0.053263351 0.22868042 0.036553506 0.0057991431 0.044855338 0.15676312 0.47611198 0.0099975681 -0.23300731 0.10191644 -0.48435727 -0.017923392 0.33881134 0.2082943 -0.044236682 0.15653715 0.066279501 0.28135693 -0.22468349 -0.26574218 7.1298263e-07 0.16010265 -0.26111031 0.1364181 -0.13369361 -0.24065977 0.042958591 0.13687792 0.18656212 -0.19400294 0.13756837 0.078433909 0.1893259 -0.088563532 -0.012506358 -0.14647055 -0.049233574 0.069799736 0.09698987 -0.13514215 0.013968682
great 0.013901917 -0.072659343 0.26605943 0.27006191 -0.022227436 0.1898171 -0.048343159 0.10109554 0.26226631 0.1234682 0.018103661 -0.23165697 0.082927033 -0.019521611 0.15006483 -0.40283668 0.086835518 0.17281489 0.11269657 -0.14859794 -0.092823043 0.1011969 -0.069652587 -0.17833354 -0.055625722 0.12635727 -0.071333781 -0.015638778 -0.10875504 -0.067569032 0.22908223 -0.033376653 -0.071206145 -0.03969894 -0.10372352 0.21511959 0.29058334 0.11559583 -0.073234856 0.018124713 0.056106694 0.18002297 -0.19072254 0.025638904 -0.095021054 -0.21072397 -0.096896805 0.28129989 -0.055520676 0.3364087 0.1758436 -0.46502399 -0.31006691 -0.17749652 0.094058111 0.08583913 0.11688114 0.027175477 0.16045621 0.058635127 0.2375371 0.035402473 -0.0035310085 0.050662223 0.16671665 0.50096768 0.0042190896 -0.25432345 0.11138015 -0.5141021 -0.016496016 0.36254507 0.22063835 -0.047445543 0.15545285 0.063128196 0.30279097 -0.24128059 -0.27804217 0.00056916114 0.16477206 -0.27828327 0.14201707 -0.14575468 -0.25054473 0.045535475 0.14726268 0.19088626 -0.19527872 0.15506071 0.087720498 0.19327901 -0.089922406 -0.0070539089 -0.15450211 -0.048269827 0.072382405 0.10151434 -0.1409709 0.0045149191
use 0.017735155 -0.080732889 0.27364767 0.28164047 -0.021872029 0.20022008 -0.047738507 0.10482588 0.26194489 0.12443011 0.01791255 -0.23408072 0.08580368 -0.013062799 0.14779423 -0.41344622 0.091356471 0.1768149 0.11619681 -0.14363484 -0.089770824 0.10545529 -0.069910489 -0.1822332 -0.048956655 0.1287626 -0.070095852 -0.015463618 -0.11861693 -0.079471618 0.23235507 -0.034540176 -0.065694541 -0.040622093 -0.10296769 0.21301408 0.29857668 0.1101662 -0.074050546 0.011848082 0.062316306 0.17765468 -0.19799529 0.024051793 -0.10168236 -0.22076793 -0.1065466 0.29496557 -0.050267555 0.33539638 0.17691191 -0.4736852 -0.3216545 -0.18246143 0.093188092 0.08127562 0.11780252 0.032107886 0.16714476 0.063162021 0.24762301 0.039611854 -0.0040362338 0.050160501 0.17366631 0.5106945 0.00052157504 -0.25918174 0.11423716 -0.52097946 -0.015311039 0.36015078 0.22351852 -0.043514185 0.16517852 0.068707496 0.30574411 -0.25370854 -0.28447643 0.0054754219 0.16896346 -0.28344139 0.15492782 -0.1517002 -0.25718316 0.04225054 0.14718625 0.19297817 -0.20261943 0.15955201 0.08689782 0.19817989 -0.096170217 -0.015298052 -0.16482693 -0.049831241 0.070871949 0.10086385 -0.14683603 0.0080505274
work 0.0096268822 -0.073669843 0.26460123 0.26727697 -0.011730776 0.18860246 -0.043197729 0.099875234 0.25051251 0.11282991 0.0093391147 -0.22999513 0.078825958 -0.010929822 0.14920759 -0.40272588 0.084726021 0.1702192 0.11656332 -0.13857193 -0.088222891 0.096883401 -0.070268311 -0.16972835 -0.047917783 0.12798125 -0.069315791 -0.011993037 -0.11470509 -0.07672517 0.22664426 -0.032959051 -0.069390275 -0.046623312 -0.10534239 0.21049222 0.28758305 0.10864014 -0.079112269 0.017414728 0.056899689 0.17684247 -0.18620464 0.022127321 -0.093694605 -0.20690835 -0.10386382 0.27725986 -0.049851045 0.33326462 0.17145111 -0.45669916 -0.30390665 -0.17324564 0.091054179 0.077933557 0.12246571 0.030880455 0.15720087 0.060707401 0.24109834 0.033854492 -0.0018046439 0.051471632 0.16610429 0.49273109 0.0046735504 -0.24593684 0.1127964 -0.50679201 -0.013840372 0.34858406 0.21581648 -0.046898641 0.15074436 0.064280696 0.3000865 -0.24170007 -0.26741818 -0.00055835815 0.16056609 -0.27758124 0.14644536 -0.14301436 -0.24102157 0.050510082 0.13758552 0.18590011 -0.19629428 0.15059949 0.085093275 0.19999142 -0.092440747 -0.00998885 -0.16125247 -0.046448015 0.072306387 0.10977083 -0.14042546 0.0075828964
alexa 0.015477087 -0.074456431 0.27831027 0.28123939 -0.014925942 0.20234478 -0.043705828 0.11153019 0.27379447 0.12372631 0.018277312 -0.23350757 0.085384749 -0.011272084 0.15415448 -0.42345443 0.085126936 0.18230239 0.11711198 -0.15326162 -0.089750133 0.1082805 -0.075161397 -0.17869037 -0.058630064 0.13358064 -0.070777737 -0.017533187 -0.11882406 -0.081369981 0.24009594 -0.035499521 -0.074455775 -0.042871352 -0.11182494 0.22528759 0.30299011 0.11766914 -0.08139313 0.017543653 0.06792824 0.18117672 -0.20017241 0.034555502 -0.09765441 -0.22817989 -0.10545078 0.29132816 -0.057946272 0.35501876 0.17791638 -0.48966894 -0.32726792 -0.18792687 0.091990545 0.089007519 0.12805089 0.033559587 0.16354655 0.059982199 0.25405154 0.037256148 0.0023567365 0.055071119 0.17822157 0.51926625 -0.00017413114 -0.26397011 0.1160332 -0.54122329 -0.025169274 0.37210152 0.23523842 -0.043847166 0.16057085 0.064000778 0.3166829 -0.25414333 -0.29369244 -0.00061042747 0.17030515 -0.28961399 0.15699542 -0.16129832 -0.26311186 0.04764989 0.15309638 0.20191412 -0.21192098 0.16033576 0.086693197 0.20140445 -0.096086532 -0.0080698757 -0.16940491 -0.04727852 0.078044042 0.11250371 -0.15057476 0.013262124
music 0.0086516412 -0.070572168 0.26313597 0.27992439 -0.017025262 0.19181925 -0.044948656 0.11229505 0.25855544 0.11883786 0.017871253 -0.23290639 0.082724325 -0.019263187 0.145347 -0.41773936 0.08353734 0.17387624 0.1255077 -0.15157983 -0.088507459 0.10063785 -0.070119403 -0.17194785 -0.057493784 0.12623508 -0.074573264 -0.018775949 -0.11257013 -0.071517348 0.24309863 -0.04531458 -0.06740655 -0.041520514 -0.10221346 0.21613939 0.30151767 0.11739527 -0.07833904 0.018484972 0.069769092 0.18708357 -0.19347377 0.032209888 -0.090103552 -0.21445659 -0.097797439 0.28841159 -0.050410811 0.34373105 0.17476591 -0.47640368 -0.31999204 -0.18101469 0.094485991 0.090003707 0.12258644 0.027723992 0.1657678 0.062434185 0.24137492 0.033533972 -0.0014151401 0.045565899 0.16726871 0.51319355 -0.0010020569 -0.25184658 0.11303422 -0.52640724 -0.026091117 0.35883477 0.23341031 -0.047247093 0.15556407 0.072187923 0.30181798 -0.25178802 -0.27441487 0.0013516885 0.17689845 -0.27921394 0.15175791 -0.15168554 -0.25072509 0.042823583 0.15044419 0.19914411 -0.19922262 0.15510036 0.079252735 0.20083664 -0.08911512 -0.0037151091 -0.15983032 -0.05521664 0.066527203 0.10366089 -0.1375476 0.012105357
like 0.018579958 -0.079289295 0.28310502 0.28691998 -0.023304595 0.20356582 -0.055738572 0.11179546 0.27536941 0.12855832 0.012437697 -0.23850353 0.093666747 -0.019086219 0.15871377 -0.4305464 0.091196261 0.18507025 0.12603499 -0.14934999 -0.091843612 0.10658086 -0.07018321 -0.18389681 -0.055689197 0.13653494 -0.068761587 -0.013261977 -0.11794813 -0.075780198 0.24429455 -0.044627827 -0.074777655 -0.049370233 -0.10748004 0.22254771 0.30749065 0.1190155 -0.081640534 0.02056036 0.063053489 0.18923971 -0.20061788 0.029642304 -0.10315476 -0.22680081 -0.10487166 0.29493335 -0.056951191 0.34951949 0.1810738 -0.49131897 -0.32653919 -0.19301054 0.096491575 0.091007456 0.12238207 0.035081912 0.16667016 0.0627639 0.25198418 0.03914899 -0.0015926453 0.056166474 0.17488711 0.52825487 -0.001216081 -0.26443657 0.11871567 -0.54077303 -0.021575401 0.37224385 0.23712279 -0.045381222 0.16836274 0.071576878 0.31987593 -0.25854424 -0.2953845 0.00079712115 0.1777602 -0.28774402 0.15609872 -0.16241255 -0.26813674 0.050405674 0.15400474 0.20751266 -0.21376808 0.15817398 0.093601167 0.20337862 -0.087903269 -0.0062551252 -0.17141107 -0.053340945 0.073750272 0.10579605 -0.14926486 0.0052512377
sound 0.01289515 -0.073843226 0.26137865 0.27064398 -0.013567445 0.18633796 -0.052110013 0.098005675 0.25835717 0.11066169 0.016165486 -0.21966863 0.085791543 -0.013249025 0.14240678 -0.39757112 0.08648511 0.1700176 0.11841385 -0.14204958 -0.079467691 0.090536132 -0.067990795 -0.17670393 -0.04588218 0.12691526 -0.067034788 -0.010465676 -0.10798696 -0.073880538 0.23108639 -0.041527994 -0.071004376 -0.037607092 -0.10289848 0.20877515 0.29018113 0.11522512 -0.071845435 0.011593781 0.05782596 0.16963647 -0.18824834 0.024185011 -0.093982652 -0.21089207 -0.095159099 0.27956429 -0.056956407 0.32678118 0.16415387 -0.44963565 -0.30716366 -0.17663217 0.092237212 0.081871115 0.12208971 0.034455501 0.15487979 0.062500112 0.24140605 0.036997974 -0.0049658818 0.048409134 0.16071926 0.48898891 0.0018146054 -0.24969304 0.11483254 -0.50686765 -0.015534647 0.34425467 0.22325574 -0.042333584 0.15958589 0.064761154 0.29646841 -0.2413132 -0.26482043 0.0014717492 0.1657472 -0.27312973 0.14690615 -0.14693798 -0.24649072 0.041817561 0.1434845 0.18483131 -0.19207424 0.14236127 0.07903453 0.19439061 -0.083328575 -0.01490734 -0.16042374 -0.046503622 0.067074791 0.1061312 -0.1352957 0.0078840014
i 0.01819841 -0.083032399 0.28790954 0.283586 -0.020728657 0.19554816 -0.056699783 0.11106893 0.26834005 0.13046607 0.014380706 -0.23950253 0.095352687 -0.020438688 0.15584835 -0.4332979 0.090473942 0.18808126 0.13029031 -0.15363029 -0.087600388 0.11039098 -0.066955201 -0.18699339 -0.05419654 0.12939943 -0.075271584 -0.012451357 -0.12569258 -0.077722631 0.25046232 -0.03654059 -0.070559785 -0.046450887 -0.10961001 0.21928227 0.31051245 0.12275057 -0.085258894 0.021971831 0.068095766 0.19311376 -0.20383412 0.03587123 -0.1033911 -0.22131376 -0.10528836 0.3064723 -0.057127189 0.34910715 0.18376482 -0.48892438 -0.33467212 -0.19096486 0.091780417 0.080984816 0.12802896 0.03185704 0.17644715 0.066415571 0.25811353 0.029273784 -0.0033611921 0.051243406 0.17427145 0.5290398 0.0038614452 -0.26280054 0.11768126 -0.54173481 -0.019641949 0.37611023 0.23627737 -0.052974265 0.17515233 0.064076573 0.32264736 -0.25978366 -0.2934868 0.0034144397 0.17312601 -0.29013327 0.15846771 -0.16276124 -0.26926297 0.053601772 0.1563507 0.20789969 -0.21143767 0.15880553 0.0855731 0.21172911 -0.095636688 -0.013313812 -0.17074111 -0.057260904 0.070181109 0.10480849 -0.14272219 0.013311955
one 0.016358858 -0.073104195 0.2807675 0.28410798 -0.019863205 0.19541278 -0.046349566 0.10223966 0.26316082 0.12318172 0.019964606 -0.23790652 0.085815452 -0.013692969 0.15323435 -0.4220058 0.088556163 0.17499259 0.12072542 -0.15174593 -0.092411578 0.10962887 -0.063671045 -0.18564145 -0.057419971 0.13600723 -0.070826955 -0.00823477 -0.1182678 -0.081652515 0.24456492 -0.041466236 -0.07328932 -0.046984196 -0.10752432 0.21617281 0.30732423 0.11952708 -0.082207158 0.018886613 0.070741504 0.18799891 -0.19450627 0.027563799 -0.095279552 -0.2272034 -0.10707773 0.29659462 -0.058233913 0.34916523 0.17580187 -0.47844404 -0.32625225 -0.18018194 0.088061236 0.080170862 0.12027586 0.035361554 0.16834718 0.059170339 0.25606975 0.029473929 0.0038332625 0.04819417 0.17038512 0.52352941 0.0094153816 -0.25538841 0.12074186 -0.53211576 -0.016720269 0.3712706 0.23623483 -0.049384039 0.16336988 0.070859678 0.3137925 -0.25647014 -0.29206267 0.0081423158 0.16987465 -0.2853725 0.15029101 -0.15948452 -0.2547228 0.045196567 0.14369087 0.20387353 -0.20926645 0.15149553 0.08303155 0.21032599 -0.087199852 -0.013379051 -0.16506405 -0.045729738 0.075032085 0.11015718 -0.1482399 0.011211236
set 0.017163839 -0.079771549 0.26763165 0.27893889 -0.023537071 0.20612162 -0.048521902 0.10919514 0.26351228 0.125554 0.011385719 -0.23943163 0.082003266 -0.022318153 0.15122257 -0.41905659 0.092000157 0.16966508 0.12082699 -0.15386038 -0.095385768 0.10354695 -0.066739559 -0.18354896 -0.051370043 0.13479176 -0.075947568 -0.0070348149 -0.12815642 -0.080508292 0.23414373 -0.034430083 -0.072787255 -0.049487714 -0.11130069 0.22253379 0.29325509 0.11723164 -0.083056085 0.006684389 0.058047675 0.18682677 -0.19251652 0.025251901 -0.098900169 -0.22066422 -0.10015468 0.30134654 -0.052861001 0.34801489 0.18248111 -0.47758844 -0.32791966 -0.18927157 0.085867867 0.093587436 0.11962304 0.033173144 0.17193809 0.059065953 0.25908244 0.041439544 0.0068131052 0.056898601 0.18054186 0.5218401 0.0031455504 -0.26111588 0.11137659 -0.53687805 -0.016306566 0.37080738 0.2321355 -0.053143729 0.16928244 0.06802769 0.30241296 -0.25788945 -0.29172772 -0.0030937623 0.17983663 -0.29404673 0.15495583 -0.15254642 -0.25453535 0.040656205 0.15147606 0.19831002 -0.20907243 0.16230057 0.093079977 0.20087709 -0.091764264 -0.01758205 -0.17385744 -0.05438333 0.081412636 0.10849357 -0.14615868 0.0019944063
get 0.019594574 -0.079893202 0.28131819 0.28302339 -0.018478801 0.20186317 -0.053270344 0.10981648 0.27322456 0.12704235 0.014106282 -0.23813303 0.092484683 -0.012638696 0.1497182 -0.43222383 0.091742501 0.18167128 0.12626924 -0.15277368 -0.08818239 0.10394165 -0.070886619 -0.18010181 -0.055305563 0.13376912 -0.066118576 -0.013898659 -0.12377878 -0.077864058 0.2438668 -0.044154722 -0.078724518 -0.04402817 -0.11198866 0.22173075 0.31015843 0.11658292 -0.075761467 0.019453287 0.068359137 0.18936421 -0.19437985 0.03514285 -0.10486522 -0.22895265 -0.10475688 0.29556379 -0.060460407 0.35625249 0.18306682 -0.48530796 -0.33265379 -0.18956278 0.089997813 0.088946559 0.12912893 0.03120984 0.1711937 0.056593589 0.25035232 0.033507172 0.002614032 0.052677754 0.17336273 0.52967536 -0.0018050803 -0.26035911 0.11915367 -0.54059952 -0.020969493 0.3737523 0.23463257 -0.050247662 0.16866529 0.06886591 0.31786638 -0.2622312 -0.29456386 0.0062580775 0.1779771 -0.28976694 0.15426292 -0.15898548 -0.26507434 0.046878822 0.15063277 0.20732813 -0.21606869 0.15519477 0.083772451 0.20647751 -0.08848805 -0.0067958073 -0.16838196 -0.053374387 0.075877517 0.10617948 -0.14975722 0.0060055512
devic 0.012489165 -0.07308846 0.27791336 0.28594425 -0.017897043 0.20299225 -0.051712606 0.10675664 0.2741425 0.12377693 0.012626372 -0.24383321 0.086790465 -0.019728985 0.15161002 -0.42880002 0.091317713 0.18576479 0.12246535 -0.15658352 -0.09624394 0.10351852 -0.071439907 -0.18779601 -0.052058682 0.12763132 -0.07327307 -0.0076780552 -0.11627694 -0.079560988 0.24223815 -0.041744981 -0.069840886 -0.048709776 -0.11051561 0.22794414 0.30867863 0.12101481 -0.077919349 0.015756166 0.065986954 0.19397229 -0.20231713 0.026398785 -0.10323688 -0.22595018 -0.099207617 0.29367295 -0.054761373 0.35698956 0.17727308 -0.49549559 -0.32563907 -0.18959068 0.0890591 0.092214264 0.12424754 0.0288515 0.17275803 0.062056709 0.25935486 0.035118513 0.0015593399 0.056620467 0.17243953 0.52325654 -0.00088230206 -0.26847574 0.1167004 -0.54085416 -0.017410653 0.37963101 0.23737438 -0.049130395 0.16395663 0.063723132 0.31945542 -0.25603107 -0.29389107 0.00084689382 0.17839882 -0.28795442 0.15420192 -0.16269459 -0.2654579 0.052355472 0.14934859 0.20489961 -0.21630722 0.16173659 0.088862844 0.20329824 -0.094793811 -0.0094790421 -0.16453707 -0.046417005 0.076840602 0.1099777 -0.15228051 0.0076338532
dot 0.012252711 -0.075453743 0.27482328 0.27750444 -0.018623766 0.19757438 -0.042781327 0.10495464 0.25480947 0.1155169 0.010255682 -0.22633404 0.081928559 -0.0084119877 0.14802006 -0.40670455 0.086317338 0.17461073 0.1202583 -0.15050699 -0.093313158 0.10191264 -0.072348043 -0.17911786 -0.049397983 0.12552705 -0.064293146 -0.0086205024 -0.11552462 -0.078285947 0.23680897 -0.040736426 -0.072177663 -0.039145403 -0.10668432 0.21227297 0.29606262 0.10953343 -0.073052064 0.018022876 0.067618698 0.18276037 -0.18626384 0.032930516 -0.097219527 -0.21541324 -0.10603608 0.28317645 -0.058905587 0.33463785 0.17450128 -0.4679206 -0.31116465 -0.18359874 0.084410556 0.077176087 0.12859078 0.033785112 0.16135255 0.058127508 0.24158922 0.035631076 -0.0017396652 0.052698825 0.16408621 0.50521785 0.0067352233 -0.25744402 0.11052517 -0.51623213 -0.022140343 0.36479232 0.22385736 -0.050628774 0.16512318 0.069765374 0.30859995 -0.24841058 -0.2749019 0.0020092514 0.16919968 -0.28365526 0.14277771 -0.15531276 -0.25409955 0.05169104 0.14652644 0.19864881 -0.197942 0.14788438 0.084766455 0.20043918 -0.086781465 -0.0095017804 -0.16506483 -0.052237071 0.06688752 0.10467413 -0.14491108 0.0079784552
easi 0.020189472 -0.077277213 0.24677241 0.26010197 -0.01839098 0.18354245 -0.053967312 0.092895195 0.24699563 0.11769786 0.01077428 -0.22512183 0.078673191 -0.017464317 0.14407998 -0.38470224 0.087823473 0.15695491 0.10848596 -0.13319768 -0.081779622 0.089241773 -0.057971343 -0.16744278 -0.044886272 0.11605508 -0.06405998 -0.0090444805 -0.11769557 -0.070332251 0.2267631 -0.029599056 -0.063778616 -0.042104669 -0.10591481 0.20660014 0.27558315 0.10282078 -0.076099172 0.0082385242 0.055233169 0.17672309 -0.18933487 0.025761072 -0.098176777 -0.20010112 -0.098784477 0.27711967 -0.045134358 0.31932819 0.1590616 -0.43781769 -0.30264735 -0.17644937 0.086209737 0.080512449 0.11007246 0.037364133 0.15736555 0.052850757 0.23643158 0.027791847 0.0036059995 0.049929574 0.16700858 0.48305598 -0.0014152313 -0.24429388 0.11455515 -0.48966861 -0.02452503 0.33712947 0.21322107 -0.04524925 0.15614991 0.061164487 0.27799386 -0.23549777 -0.26796117 0.0019365785 0.16198963 -0.26608008 0.13558736 -0.13297911 -0.2357453 0.039409745 0.13366294 0.18598455 -0.19257094 0.14244455 0.089525357 0.18777618 -0.093310997 -0.0061887559 -0.15060484 -0.045030866 0.07419838 0.10277218 -0.13527381 -0.00054572878
play 0.012184219 -0.072284006 0.2608695 0.27355376 -0.014509043 0.19279151 -0.048196889 0.10671119 0.26281631 0.11290457 0.01183337 -0.22499546 0.078698099 -0.011463844 0.14385246 -0.40757334 0.080991648 0.17261173 0.12092485 -0.14847577 -0.090445384 0.099145085 -0.062358856 -0.17763452 -0.056184612 0.1258688 -0.072500527 -0.018668003 -0.12184324 -0.078493841 0.2322329 -0.042095754 -0.068328179 -0.047747411 -0.099919058 0.21359922 0.2984066 0.10836446 -0.080330983 0.019926375 0.06551531 0.18078884 -0.1852745 0.031422541 -0.090351336 -0.21576634 -0.099347293 0.27651799 -0.052502029 0.33436149 0.17349863 -0.4673622 -0.3090333 -0.17730349 0.087529935 0.088590145 0.12242115 0.02696717 0.16413043 0.060378756 0.23447981 0.027686702 0.0025280192 0.045455907 0.16203907 0.49738461 -0.0023931211 -0.24776261 0.11150537 -0.51307946 -0.019479964 0.35181224 0.22382337 -0.039407402 0.15190396 0.066726424 0.2970424 -0.24804412 -0.2706221 0.0074292235 0.16956675 -0.27826717 0.15312597 -0.14764018 -0.25017059 0.042493813 0.14188665 0.19275285 -0.19497079 0.1518082 0.083296224 0.19337645 -0.088770628 -0.012209141 -0.15805334 -0.051160399 0.073537797 0.097907655 -0.13405311 0.0047801849
speaker 0.013944014 -0.071125366 0.26300439 0.27111232 -0.022168983 0.18372637 -0.050365616 0.098870389 0.25973144 0.11808383 0.013309703 -0.22660825 0.086581253 -0.01505101 0.14010522 -0.40225753 0.082166053 0.17349795 0.11404473 -0.14403494 -0.08228416 0.093626328 -0.06798064 -0.17726929 -0.051081702 0.12508452 -0.069602624 -0.0068449238 -0.11086517 -0.070954017 0.23720655 -0.038528264 -0.071397878 -0.047163315 -0.1009315 0.20941292 0.29555586 0.10998541 -0.07088989 0.011962396 0.058819484 0.17836681 -0.18925801 0.027442284 -0.093573526 -0.21591546 -0.10003144 0.27925813 -0.049421441 0.33244109 0.17067206 -0.46184486 -0.30860281 -0.17672884 0.093053639 0.086460277 0.11603509 0.028606398 0.1621343 0.061128307 0.24218526 0.02884852 -0.0015136794 0.049811754 0.15942621 0.49840426 0.0051372899 -0.25117218 0.11365717 -0.51186931 -0.021739719 0.35686582 0.22577582 -0.03916781 0.15820663 0.060560662 0.30466449 -0.24021263 -0.26784912 0.0074502211 0.16300215 -0.27433556 0.14272988 -0.14824976 -0.24738975 0.040168252 0.14283596 0.18961832 -0.20100217 0.15016499 0.086720608 0.19656736 -0.088581041 -0.013069283 -0.15864974 -0.052957959 0.065736741 0.10020146 -0.1411479 0.0030040268
product 0.011950717 -0.073148757 0.24132594 0.24999218 -0.018647244 0.1749928 -0.045724869 0.098669559 0.23672546 0.10906841 0.0087665115 -0.20549448 0.076216571 -0.015260162 0.13603483 -0.3797358 0.078482486 0.15533249 0.11117684 -0.12776546 -0.081654683 0.086530067 -0.060247105 -0.16412371 -0.049055681 0.11624669 -0.062388096 -0.0083092544 -0.10687284 -0.064733207 0.21928878 -0.034701992 -0.057986319 -0.039945949 -0.091808215 0.19956371 0.27488771 0.10921159 -0.075475968 0.011232981 0.05957434 0.16316988 -0.17890298 0.020999013 -0.085940301 -0.19165251 -0.094501279 0.26599526 -0.044563238 0.30420667 0.16054882 -0.42710227 -0.28776675 -0.16384253 0.086559564 0.080388226 0.11094848 0.029932862 0.14581724 0.050365034 0.22451836 0.027046455 0.0017404284 0.045551073 0.1539253 0.4576126 -2.024376e-05 -0.23141448 0.1027951 -0.47547397 -0.019236229 0.32780513 0.20857289 -0.037610251 0.13966909 0.06186305 0.27123576 -0.22995499 -0.2584278 -0.00037455998 0.15979166 -0.25912786 0.13740592 -0.13201737 -0.23200753 0.044147871 0.13171642 0.1721182 -0.18949655 0.13769753 0.080099426 0.18007259 -0.085143775 -0.0063332226 -0.14232212 -0.04797874 0.066847071 0.10045458 -0.12864044 0.010152726
good 0.014717098 -0.068183005 0.26971453 0.26996961 -0.020249989 0.18689665 -0.048952237 0.098377436 0.25836653 0.12385767 0.018427309 -0.2237424 0.085490793 -0.016440483 0.14456092 -0.40406823 0.080613688 0.16820131 0.12049122 -0.14477129 -0.087779477 0.098419107 -0.065134749 -0.17257759 -0.056093149 0.12962964 -0.064594984 -0.013240553 -0.10930815 -0.071540698 0.23781148 -0.038135279 -0.071853295 -0.048052236 -0.10173211 0.20562935 0.29189461 0.11586023 -0.070732452 0.011108997 0.067767359 0.17576687 -0.19279306 0.029738303 -0.096541986 -0.21547478 -0.096847489 0.28663689 -0.053178441 0.33443552 0.17633833 -0.46005076 -0.31363511 -0.17918253 0.090973414 0.078369513 0.11893221 0.032363173 0.1606117 0.055196688 0.24341288 0.038580868 -0.0035162657 0.053140804 0.1651514 0.5017826 0.0020234906 -0.25573331 0.10958511 -0.50719857 -0.019466482 0.35957873 0.22812603 -0.042102605 0.15897708 0.066259019 0.30592632 -0.24984211 -0.27577233 0.0062353197 0.17225581 -0.27950847 0.1395119 -0.15338226 -0.24387488 0.050483238 0.14519362 0.19528034 -0.20009936 0.14928862 0.087689936 0.19567159 -0.084519856 -0.0053558997 -0.15377915 -0.045303602 0.070078067 0.1009331 -0.14017873 0.0079016648
thing 0.011053626 -0.072336711 0.27004606 0.27818483 -0.01836792 0.19460319 -0.046958841 0.1055506 0.26366892 0.12140276 0.0090682814 -0.23285827 0.088647552 -0.012395308 0.15106289 -0.422066 0.088239811 0.17732136 0.11683755 -0.14501122 -0.091221407 0.1003217 -0.072915293 -0.17611346 -0.052775476 0.13181147 -0.070615903 -0.0098869856 -0.11707495 -0.075429432 0.24416809 -0.03880167 -0.073528588 -0.048814427 -0.11051793 0.21651921 0.30472213 0.12071542 -0.084133469 0.010447424 0.06465549 0.17933829 -0.19359308 0.030079372 -0.098575756 -0.2253512 -0.10613356 0.29493523 -0.054857593 0.34016633 0.17807122 -0.47809166 -0.32492077 -0.18566649 0.089896277 0.087265171 0.12700345 0.034284171 0.16369686 0.065412454 0.24969666 0.030095384 0.002516533 0.054602586 0.17572641 0.51841301 0.0033580293 -0.25584388 0.11596592 -0.53085947 -0.021213725 0.36145213 0.22731693 -0.049945544 0.16476101 0.069132023 0.31230363 -0.25762519 -0.28485352 0.0065873573 0.17577393 -0.28715286 0.15317984 -0.15141705 -0.2560192 0.044323955 0.14440821 0.19603908 -0.21049102 0.1592076 0.083440311 0.20333655 -0.088499285 -0.0064052311 -0.1619305 -0.051650602 0.073545314 0.10917656 -0.14397833 0.0071242587
amazon 0.016976124 -0.076969534 0.28349632 0.28292456 -0.012281558 0.20494869 -0.042558454 0.10646399 0.27503896 0.13036685 0.015110123 -0.24124195 0.089809723 -0.014915913 0.15089813 -0.42331102 0.088031888 0.17921767 0.12871902 -0.15294372 -0.091308154 0.10752739 -0.07340128 -0.18336374 -0.060231235 0.13638732 -0.073857389 -0.008428351 -0.12289626 -0.081691541 0.24981053 -0.037084565 -0.073459625 -0.043893982 -0.10915264 0.22385199 0.31304374 0.11765071 -0.078456223 0.018562233 0.072920911 0.19121191 -0.20190851 0.030652106 -0.097281292 -0.22592261 -0.10380268 0.29510909 -0.056219097 0.35296765 0.18344139 -0.49178287 -0.32426813 -0.18496183 0.086697094 0.087209836 0.12460355 0.032655109 0.16790783 0.057127841 0.25820297 0.029267741 -0.0027733187 0.051935997 0.17031534 0.5318017 0.0085464837 -0.27029854 0.11384908 -0.54023421 -0.026099429 0.3735711 0.23287155 -0.051515233 0.16954726 0.066178352 0.32397476 -0.25322288 -0.29536065 0.010486317 0.18190625 -0.29625627 0.15236603 -0.16239704 -0.25994471 0.052664518 0.14850181 0.20855473 -0.20886412 0.15484908 0.084154136 0.21293548 -0.090235852 -0.0079286145 -0.17076358 -0.049990773 0.076341778 0.10729022 -0.14720675 0.0058714193
time 0.010917583 -0.076558135 0.28156415 0.28124201 -0.013726792 0.19815473 -0.054165028 0.11059289 0.2730101 0.12453875 0.0099532735 -0.24086653 0.092714585 -0.017612305 0.15465158 -0.42474678 0.091885358 0.18057074 0.12351019 -0.15491255 -0.086442612 0.10084067 -0.067519352 -0.17887335 -0.059537027 0.13448808 -0.074354835 -0.018302666 -0.12494515 -0.076093279 0.24361831 -0.040978737 -0.074987806 -0.044075891 -0.10704193 0.21635592 0.30930486 0.11766254 -0.083324909 0.016186992 0.068415657 0.18370041 -0.20140877 0.027373604 -0.099913932 -0.22671093 -0.11042688 0.29466107 -0.051323742 0.34964013 0.17947973 -0.48329902 -0.32553223 -0.1847683 0.089285985 0.090761252 0.12990709 0.035275452 0.16600046 0.056981564 0.24943863 0.038615584 -0.0042121457 0.05151492 0.17377277 0.52180833 -0.0016967038 -0.26356423 0.1211866 -0.53129178 -0.018172516 0.36970928 0.23061638 -0.045251612 0.16567309 0.066601299 0.312199 -0.25980854 -0.29062557 -0.0016363352 0.17148694 -0.28596401 0.15121174 -0.15618172 -0.2566143 0.050004907 0.1479325 0.20701124 -0.21176779 0.1629522 0.091943398 0.20719549 -0.089336239 -0.013495437 -0.1683602 -0.048123524 0.073737897 0.11461549 -0.14240694 0.012647804
would 0.016434895 -0.070975259 0.27751768 0.2814298 -0.018181637 0.20061041 -0.046587951 0.10006399 0.26863721 0.12084913 0.012735759 -0.23564431 0.089176491 -0.010849012 0.15664242 -0.42052218 0.084786132 0.18262637 0.12501533 -0.14907837 -0.092852041 0.10359328 -0.067847632 -0.17612521 -0.04940835 0.12768309 -0.072841175 -0.0091641508 -0.12018566 -0.07305707 0.24734117 -0.037545521 -0.076611102 -0.041729163 -0.10726415 0.22292092 0.30496737 0.1164744 -0.076764584 0.016681708 0.060616296 0.18587425 -0.19523986 0.030857155 -0.1046558 -0.22154608 -0.10348409 0.28712779 -0.053847503 0.34979725 0.18224779 -0.47634032 -0.32204282 -0.18132553 0.090293817 0.081387669 0.12316602 0.032875232 0.16008827 0.063115694 0.25023767 0.03736119 -0.0046901852 0.048610382 0.17478135 0.51373565 0.003003286 -0.26263008 0.12082901 -0.53443682 -0.020906851 0.36690006 0.2283828 -0.043029323 0.16497791 0.063831598 0.31692699 -0.25746232 -0.29004276 0.0022785095 0.17034401 -0.28719431 0.15485752 -0.1614361 -0.25476247 0.054096736 0.15017641 0.20374534 -0.21285421 0.14914817 0.088337988 0.20739818 -0.087819725 -0.0080156485 -0.16254127 -0.053843014 0.076463312 0.10955367 -0.14300434 0.0038371165
home 0.012795448 -0.077361889 0.27928418 0.27970833 -0.01150514 0.19732967 -0.050429605 0.10072774 0.27126873 0.12204538 0.013843876 -0.23293994 0.090932004 -0.012668185 0.15934467 -0.42889714 0.084990554 0.18221389 0.11735512 -0.15278763 -0.096079662 0.10769027 -0.07363037 -0.17823555 -0.049591612 0.12747127 -0.073787428 -0.016185554 -0.12214355 -0.076771602 0.24085498 -0.043859337 -0.067853898 -0.041202135 -0.10505418 0.2233427 0.30629128 0.1153449 -0.083070874 0.016326824 0.071277626 0.18253399 -0.19514614 0.02816784 -0.099210456 -0.22883624 -0.10266861 0.29728627 -0.057603277 0.35285378 0.18376324 -0.48751363 -0.32883272 -0.17839825 0.097045831 0.086888038 0.13029139 0.034879424 0.16759455 0.063571163 0.2599341 0.032739516 -0.002916893 0.055837862 0.17668819 0.52304709 0.0033963807 -0.25816965 0.12197766 -0.53672564 -0.019566687 0.37565601 0.23633356 -0.04290165 0.15945998 0.068759531 0.3177104 -0.25990123 -0.28229657 0.0059935069 0.17899112 -0.2874667 0.15631513 -0.15422016 -0.26223016 0.046232995 0.14549872 0.20535754 -0.20465028 0.16174026 0.085017487 0.20226419 -0.092043623 -0.0092616677 -0.16477537 -0.048589833 0.075436689 0.11069433 -0.14809507 0.0046963249
t 0.018435393 -0.070269689 0.26538569 0.26687819 -0.021196466 0.19202489 -0.040531408 0.10160421 0.25376716 0.11443089 0.015185625 -0.23053944 0.085158795 -0.0083046695 0.14322245 -0.40069452 0.083728157 0.17153314 0.11295416 -0.14347123 -0.088376626 0.09392491 -0.065768167 -0.17181438 -0.047372647 0.12680469 -0.06595967 -0.011656082 -0.11044263 -0.079302974 0.22994398 -0.037705049 -0.071989976 -0.046254598 -0.10703134 0.20723405 0.29778224 0.10706355 -0.078032218 0.010243961 0.061067302 0.17735584 -0.18264352 0.028974358 -0.10013445 -0.21781695 -0.098109946 0.27536967 -0.055870101 0.33268473 0.17470919 -0.46162307 -0.31436044 -0.17988345 0.082605265 0.079763837 0.12066934 0.024637165 0.15503559 0.063382864 0.23748815 0.037280101 0.00091565651 0.046748564 0.1638038 0.49605289 0.008082754 -0.24640347 0.11376303 -0.51575404 -0.023463823 0.35082152 0.22004528 -0.046109233 0.15587728 0.06039349 0.30438271 -0.24023548 -0.27737471 0.0080943601 0.16193134 -0.27559865 0.14167704 -0.15052964 -0.24405052 0.047964972 0.13913685 0.19263965 -0.19950067 0.15165523 0.083784759 0.20106056 -0.091400862 -0.011864053 -0.1564052 -0.046617538 0.069811806 0.10812239 -0.14505273 0.0088857627
still 0.019993048 -0.067744002 0.25741166 0.26292181 -0.018502552 0.18326569 -0.052284069 0.09666165 0.24665755 0.11392704 0.010986003 -0.22315538 0.077205986 -0.018644849 0.14204781 -0.39315015 0.084704332 0.16794321 0.11970864 -0.14340974 -0.084440261 0.095598228 -0.063862711 -0.17205943 -0.055063963 0.12177577 -0.060491584 -0.0087060723 -0.10681612 -0.073268421 0.22937104 -0.040509455 -0.06906525 -0.039162382 -0.10204331 0.19952799 0.28139716 0.10692015 -0.078750104 0.017291225 0.061422218 0.16946138 -0.189174 0.028667318 -0.093820654 -0.20860405 -0.098351456 0.27955827 -0.049310938 0.31856316 0.16998668 -0.4418655 -0.29959133 -0.1716577 0.085442893 0.075902522 0.11055378 0.03539468 0.15338244 0.054942772 0.23633985 0.031666271 0.0031923465 0.044542324 0.16520928 0.47859102 -0.0023561423 -0.24458949 0.11241423 -0.48869383 -0.012294267 0.34153733 0.21123731 -0.042215209 0.15108213 0.068868995 0.2904101 -0.23784368 -0.26800761 0.0071710572 0.15745907 -0.27024883 0.14666647 -0.14365746 -0.24423622 0.039067294 0.13432707 0.18316124 -0.18823323 0.14088961 0.084389396 0.1892353 -0.091793306 -0.014068731 -0.14729927 -0.052101299 0.067001015 0.10458552 -0.13358079 0.0095393434
show 0.011009791 -0.075643972 0.26328775 0.2647503 -0.018187404 0.18245852 -0.043217704 0.10224921 0.25447601 0.11113239 0.018141046 -0.22127478 0.082694337 -0.012828034 0.14628074 -0.39567736 0.084943555 0.16808449 0.11361454 -0.14427723 -0.086301044 0.09735664 -0.060412161 -0.16908503 -0.046685211 0.12527558 -0.064184614 -0.013732376 -0.11286324 -0.072174914 0.22590876 -0.032725886 -0.067680582 -0.040232118 -0.10099705 0.20640886 0.29001579 0.11424031 -0.071145698 0.020318957 0.062386736 0.17967391 -0.18205364 0.025288116 -0.091070995 -0.21012051 -0.10108907 0.27685511 -0.048224881 0.32447496 0.16171399 -0.448598 -0.30009446 -0.17679378 0.081493489 0.07908278 0.12302426 0.027120287 0.16054402 0.055913202 0.23838395 0.027581399 -0.0036214141 0.048733626 0.16018556 0.4923676 0.0031501902 -0.24479713 0.1088277 -0.50091535 -0.022427624 0.35303605 0.21985565 -0.051257599 0.15629476 0.061634663 0.29034439 -0.24107413 -0.27244607 -0.00057606527 0.16187322 -0.27070653 0.14798714 -0.14122078 -0.2484421 0.050594434 0.13951732 0.1866101 -0.19707398 0.14066303 0.078182988 0.18866691 -0.084566146 -0.0068041245 -0.15249528 -0.045572568 0.071992971 0.10802893 -0.13876392 0.0073666712
realli 0.018128758 -0.080121689 0.27543744 0.28762168 -0.012900658 0.20335747 -0.053515047 0.10461883 0.27059507 0.12320039 0.0169755 -0.24109641 0.090520449 -0.011590859 0.15113527 -0.42337355 0.084392607 0.17465872 0.12636895 -0.1494022 -0.088637806 0.10196241 -0.070127606 -0.1801738 -0.058505289 0.12837458 -0.065105498 -0.015128942 -0.12451116 -0.07980293 0.24817844 -0.041225526 -0.072712198 -0.048258472 -0.10275878 0.22199276 0.29822183 0.11621129 -0.076266155 0.015306087 0.06427642 0.18618652 -0.1976907 0.035323516 -0.10242723 -0.21934326 -0.10426301 0.29928106 -0.055109613 0.35175294 0.17724735 -0.48635387 -0.31995681 -0.18590635 0.088110015 0.084491298 0.12074447 0.036369704 0.16357426 0.056396972 0.24768682 0.031410575 0.001579567 0.057788268 0.1697216 0.51778573 0.0068963389 -0.26103505 0.11717774 -0.52864033 -0.01574822 0.36958408 0.23150535 -0.043372199 0.16746324 0.063055843 0.31758761 -0.256901 -0.28570262 0.00046279709 0.17803051 -0.28635234 0.15092899 -0.15474838 -0.25870872 0.047104813 0.1444007 0.20278317 -0.21074151 0.15069014 0.09038306 0.20647736 -0.087378077 -0.0068337396 -0.1704227 -0.047417812 0.069655366 0.10846429 -0.15199618 0.013139642
light 0.012443405 -0.07807152 0.30312535 0.31372398 -0.011882197 0.21498597 -0.053003956 0.10717448 0.29386008 0.13754568 0.016700413 -0.26057082 0.10001896 -0.020994842 0.17142069 -0.45891616 0.097112745 0.19955833 0.12535056 -0.15949748 -0.10478867 0.1123746 -0.07995028 -0.19764775 -0.051617499 0.14082389 -0.082334585 -0.018827194 -0.13343549 -0.09144821 0.26669216 -0.049125385 -0.076914042 -0.055238344 -0.1163941 0.2451997 0.3274748 0.12995119 -0.07959801 0.014097533 0.079192333 0.20436929 -0.20863031 0.030328438 -0.11286203 -0.2516115 -0.11161397 0.32259107 -0.056087025 0.38491189 0.19879189 -0.52695507 -0.34868205 -0.20021079 0.094416738 0.093587801 0.14417109 0.039309051 0.18380383 0.070664115 0.2806257 0.042773895 -0.0063832155 0.054129165 0.19248712 0.56786156 0.0072656404 -0.28498861 0.12188699 -0.58337313 -0.019740561 0.39834526 0.25239572 -0.052550331 0.17846876 0.069326527 0.34462136 -0.28395334 -0.31824386 0.0073729707 0.18410529 -0.30412701 0.16659422 -0.17831984 -0.27838764 0.052274659 0.1670295 0.21650149 -0.22847207 0.17528571 0.099126399 0.22080156 -0.095814772 -0.0088914745 -0.17388435 -0.05032707 0.075886287 0.1257714 -0.16600949 0.017999429
bought 0.016701024 -0.074935935 0.25739735 0.26626596 -0.020541478 0.18082473 -0.045827053 0.097967483 0.24587868 0.11356855 0.014346787 -0.21627375 0.08462365 -0.0091194008 0.13548434 -0.39318654 0.079755157 0.16373228 0.11457208 -0.14142789 -0.080310918 0.099044047 -0.058203075 -0.16762723 -0.051209867 0.12351523 -0.060919944 -0.005760293 -0.11363465 -0.070319921 0.22905621 -0.038912054 -0.072151892 -0.04619712 -0.099064097 0.19710764 0.27650499 0.11208056 -0.07005842 0.012138207 0.061060663 0.17159198 -0.17751294 0.027482519 -0.095364705 -0.2060457 -0.091675662 0.27384421 -0.049502328 0.32203573 0.16141257 -0.44871894 -0.30230036 -0.17216685 0.087062389 0.081238791 0.11483902 0.031710539 0.15969242 0.057852671 0.23745838 0.03086268 -0.0054870979 0.051179808 0.15436868 0.47889757 0.0020089457 -0.24448606 0.11333174 -0.49918178 -0.021646358 0.34266177 0.21971756 -0.04863992 0.1552002 0.058569748 0.29421657 -0.23174214 -0.2666184 0.0089022536 0.16055579 -0.27067366 0.13850768 -0.14416692 -0.24063097 0.043229956 0.13387737 0.19197719 -0.19407749 0.14639948 0.0832268 0.19460651 -0.081732422 -0.0086818906 -0.1501639 -0.048779055 0.063782439 0.10391708 -0.14089914 0.0049688672
purchas 0.018055977 -0.077126049 0.27393588 0.27568361 -0.012560877 0.19465263 -0.051483873 0.10530884 0.26383799 0.12384235 0.012212114 -0.23161715 0.088814847 -0.010454779 0.14688382 -0.41605476 0.087321244 0.17736782 0.12262243 -0.14776964 -0.089432903 0.096158549 -0.061657034 -0.1743312 -0.051647335 0.13011058 -0.062256519 -0.012860275 -0.11887752 -0.070764162 0.23527087 -0.040115021 -0.066169679 -0.046187166 -0.10899634 0.21334334 0.29766071 0.11733469 -0.0810083 0.017886871 0.06094636 0.17533439 -0.19018064 0.029837141 -0.099004887 -0.21600097 -0.096025571 0.2898165 -0.052837748 0.34125334 0.17966308 -0.47397953 -0.3153117 -0.17689739 0.082909659 0.087870546 0.12450652 0.030903446 0.1632192 0.055556361 0.24275991 0.032718614 -0.00064442586 0.045009386 0.16872226 0.51164389 0.002355573 -0.25833359 0.11547276 -0.51763397 -0.025088394 0.36647451 0.23117311 -0.044411682 0.1591282 0.061487608 0.3013095 -0.25367245 -0.28056782 0.0072667478 0.17160136 -0.27777785 0.15257646 -0.14924987 -0.24938132 0.04986934 0.14848402 0.19848517 -0.20600063 0.15493101 0.080504671 0.20400992 -0.093530349 -0.010644608 -0.16245209 -0.048903484 0.069417961 0.10328977 -0.14049001 0.0098884488
smart 0.012424212 -0.07455837 0.27486211 0.28348908 -0.014463677 0.19534476 -0.046713226 0.10450977 0.26901263 0.12233566 0.0096707139 -0.24094018 0.082989082 -0.016863342 0.1561759 -0.42044145 0.088980891 0.18373334 0.1194134 -0.14551899 -0.09588223 0.09817826 -0.072242402 -0.18677408 -0.0542983 0.12524047 -0.070755094 -0.011434889 -0.11434511 -0.07719253 0.24716631 -0.035466235 -0.075090319 -0.047029637 -0.10408145 0.21947344 0.30851987 0.11741106 -0.078056842 0.0090521732 0.064090304 0.18572353 -0.19205368 0.031582918 -0.094406605 -0.22462757 -0.10131936 0.29559293 -0.052878913 0.3504605 0.1796585 -0.48728108 -0.32028878 -0.18049027 0.093146488 0.091032334 0.12884818 0.035142891 0.16714942 0.0612805 0.25659224 0.039369687 0.0017714531 0.04976042 0.16917042 0.52372277 0.0081012696 -0.25700906 0.11375273 -0.53797925 -0.024822021 0.37701285 0.23433959 -0.047937665 0.16059227 0.065776587 0.31487036 -0.25921378 -0.29193208 0.0071593169 0.17717041 -0.2811617 0.14797851 -0.15626405 -0.25452101 0.051990584 0.15191711 0.20053563 -0.21170773 0.15663044 0.091144621 0.1997813 -0.091778502 -0.0058726072 -0.16803332 -0.048224442 0.079177365 0.11457136 -0.1424668 0.0092331273
connect 0.017642487 -0.078150712 0.27017146 0.26714295 -0.015854644 0.1876699 -0.047877856 0.10554437 0.26155224 0.11823852 0.0085781477 -0.2315212 0.084190324 -0.015241562 0.14968455 -0.40469033 0.082228959 0.17586178 0.12263809 -0.14304748 -0.090743706 0.097948149 -0.062750779 -0.17093121 -0.04692021 0.1284216 -0.068694115 -0.010770265 -0.11352877 -0.06940376 0.2307861 -0.033078045 -0.074746102 -0.045857329 -0.10009995 0.21447589 0.29746515 0.1129306 -0.078683257 0.0093290592 0.064931788 0.179649 -0.190154 0.032775301 -0.089819022 -0.21449699 -0.096999213 0.27918753 -0.057272449 0.32899472 0.17522779 -0.46158996 -0.31332302 -0.17910227 0.082937181 0.088270754 0.11684123 0.029122919 0.15685146 0.055907242 0.24736112 0.027834537 0.0018036462 0.053387109 0.16500065 0.4941524 0.0078806113 -0.25086662 0.11548565 -0.51181155 -0.018768249 0.35609579 0.21870129 -0.041641526 0.15225303 0.066044822 0.29684862 -0.24649578 -0.27497217 0.00092372688 0.16994599 -0.27889138 0.15164286 -0.15108719 -0.2501879 0.044871941 0.13834374 0.18875733 -0.20068005 0.15163693 0.085867807 0.1992213 -0.094153345 -0.0064216084 -0.16150454 -0.044176262 0.074509799 0.10704035 -0.14461996 0.0065563614
new 0.013687945 -0.067968681 0.25390127 0.25633323 -0.011372962 0.17777732 -0.047342248 0.097561903 0.24078356 0.10856544 0.010408469 -0.21720216 0.08339157 -0.01707105 0.14122374 -0.38328838 0.078633949 0.15981241 0.11006904 -0.13808212 -0.083432645 0.09667632 -0.058795772 -0.16058463 -0.054688044 0.11808144 -0.058592107 -0.0071797944 -0.10963023 -0.069905952 0.2210784 -0.033674203 -0.067598633 -0.044207741 -0.098749623 0.19320989 0.28106064 0.1022797 -0.068344124 0.012556087 0.054178037 0.16917326 -0.17597955 0.02799038 -0.09321472 -0.20302013 -0.10007599 0.27053359 -0.049460124 0.3158443 0.16094303 -0.44074526 -0.29624033 -0.16418871 0.084530905 0.073198564 0.11120906 0.033841707 0.14790419 0.052541409 0.22692348 0.032109771 0.0010720887 0.045152206 0.15717466 0.47605032 0.00098158442 -0.2395048 0.11183853 -0.48691908 -0.016208149 0.34117875 0.20929308 -0.043718234 0.14726281 0.063842058 0.28475451 -0.23520714 -0.26669437 0.0028155155 0.1600543 -0.26292267 0.13841639 -0.13588968 -0.23834027 0.046198551 0.13768126 0.18807372 -0.1937539 0.13561277 0.08373373 0.18607408 -0.088698968 -0.0055635581 -0.14803581 -0.047108162 0.06861335 0.10199828 -0.12894696 0.005248528
better 0.018168719 -0.076190248 0.25661188 0.2677941 -0.016413933 0.18869232 -0.049881574 0.094975926 0.25248826 0.11857194 0.012892262 -0.22661829 0.085578173 -0.01698884 0.1470865 -0.40264836 0.085985132 0.17170306 0.11488561 -0.14152299 -0.088492319 0.099249884 -0.060945969 -0.1703033 -0.048952073 0.12162819 -0.067652106 -0.011866478 -0.11669531 -0.072009884 0.23404782 -0.033913281 -0.072565414 -0.039299022 -0.10486939 0.20910624 0.28186074 0.10860857 -0.079143442 0.012418884 0.059902474 0.17972782 -0.18556221 0.032122459 -0.095178239 -0.21519968 -0.098193511 0.28175488 -0.054013371 0.32824042 0.16480103 -0.45523891 -0.30677772 -0.17632699 0.086908847 0.083764002 0.11853688 0.029731123 0.1590234 0.053669065 0.23783888 0.035805892 0.00090788741 0.045825701 0.16093515 0.48850232 0.0070442902 -0.24699622 0.11218639 -0.50701684 -0.019831374 0.35195741 0.21936035 -0.039432153 0.15805802 0.067885518 0.30057839 -0.24341361 -0.27332479 0.00055808574 0.16954646 -0.27278477 0.14433309 -0.14768228 -0.24713431 0.040715348 0.14016271 0.19442853 -0.19574103 0.14997132 0.086880669 0.1991421 -0.091461077 -0.0095161069 -0.1582834 -0.052966241 0.073030375 0.099230424 -0.1337814 0.0072170827
day 0.010465304 -0.077799201 0.26910746 0.27044427 -0.015064704 0.19740613 -0.041508276 0.10201111 0.2620444 0.12555496 0.018244557 -0.23524471 0.091155954 -0.012637718 0.14459327 -0.41493198 0.091674902 0.177209 0.11721888 -0.14219436 -0.081447221 0.10058914 -0.066512592 -0.18075715 -0.048700657 0.12935801 -0.065805502 -0.013212275 -0.1213493 -0.070941448 0.23685127 -0.044937234 -0.070031494 -0.047947943 -0.11005124 0.20809588 0.29495028 0.11162058 -0.072205916 0.016378338 0.062321302 0.18643117 -0.19491553 0.029527709 -0.093490385 -0.2193895 -0.10103458 0.29147419 -0.053549167 0.3397797 0.17816295 -0.47026214 -0.31531963 -0.17604028 0.091090024 0.083196312 0.1176667 0.032405406 0.16712056 0.060178619 0.24169843 0.027486524 -0.0049604708 0.047051482 0.16214454 0.51046127 0.0088397805 -0.25932294 0.11161409 -0.52314854 -0.021806303 0.36035538 0.23084566 -0.047626574 0.16373177 0.065100722 0.30786991 -0.24633738 -0.28492451 0.0068969107 0.17244197 -0.2836349 0.14650622 -0.15238376 -0.25441206 0.048259377 0.14033796 0.19932146 -0.2013617 0.153732 0.080903828 0.20653944 -0.092866682 -0.0097810039 -0.15977381 -0.046736516 0.075068258 0.10658427 -0.14648357 0.0058641778
ask 0.019055065 -0.079195842 0.27183211 0.27930716 -0.015894162 0.19802979 -0.053335119 0.10726149 0.2687822 0.11825922 0.01326781 -0.23318473 0.086884983 -0.010453353 0.1536763 -0.42228925 0.092475265 0.17994097 0.12011311 -0.15299326 -0.090537503 0.10144755 -0.070562512 -0.17449096 -0.056221548 0.13280921 -0.06775213 -0.014913642 -0.12116039 -0.078291029 0.24615729 -0.037047576 -0.072326303 -0.046780623 -0.10162149 0.22055031 0.29797459 0.11300547 -0.08005935 0.016851502 0.069788143 0.17874962 -0.19089657 0.031403884 -0.10363058 -0.21785866 -0.10446022 0.28972983 -0.059413932 0.34985653 0.17586681 -0.4823961 -0.32067761 -0.18352689 0.095607281 0.086296707 0.12247631 0.028433912 0.16755834 0.064049147 0.24386898 0.037765324 -0.0040969471 0.052706223 0.16605052 0.51905233 0.0054332078 -0.26004112 0.11184076 -0.53303039 -0.019764733 0.36302748 0.22698076 -0.042900439 0.16653332 0.064691186 0.30729622 -0.24909088 -0.2828314 0.0017093056 0.1739807 -0.28674072 0.1504748 -0.15143226 -0.25964597 0.050451584 0.14486232 0.19524902 -0.20659453 0.16072631 0.080626473 0.20090747 -0.08562924 -0.0081302859 -0.16734236 -0.045177039 0.069258191 0.11011213 -0.14531207 0.014182132
need 0.019034149 -0.077902734 0.27078998 0.27590767 -0.018513842 0.18901329 -0.045614079 0.10758945 0.25821877 0.12298167 0.017024465 -0.2353057 0.081952885 -0.015116544 0.1452636 -0.41004154 0.091893554 0.18072729 0.12196153 -0.1469062 -0.092426002 0.10038973 -0.067801245 -0.17287405 -0.055951651 0.1283533 -0.068071306 -0.008274368 -0.11904274 -0.071660541 0.23959005 -0.041486222 -0.06830553 -0.049684029 -0.10633361 0.21695627 0.29940441 0.11712843 -0.079928339 0.01625585 0.064041853 0.18318579 -0.19648582 0.031429466 -0.092558704 -0.21592402 -0.1046607 0.28964204 -0.057883993 0.34288263 0.1708366 -0.47700259 -0.31387064 -0.18041952 0.092639886 0.086869724 0.12683834 0.027373118 0.16209081 0.062282056 0.24558401 0.036693826 -0.0054908805 0.054457322 0.16567235 0.50584972 0.0037888808 -0.25108877 0.11221805 -0.52069837 -0.023212107 0.36480591 0.23213474 -0.049462166 0.15685537 0.070386037 0.31019691 -0.25452989 -0.27531937 0.010144554 0.16907752 -0.27953508 0.15021591 -0.14829366 -0.25438195 0.04392308 0.14158058 0.19699514 -0.20575897 0.15086012 0.081453681 0.20050162 -0.091716923 -0.008954186 -0.16063686 -0.046673555 0.071771696 0.10008036 -0.13956513 0.012996846
much 0.016902255 -0.081340857 0.27167439 0.28374416 -0.019480264 0.19524778 -0.052401509 0.11053242 0.26910728 0.11856496 0.014746233 -0.23508282 0.086305328 -0.010847974 0.15048817 -0.41983435 0.086965337 0.17735641 0.11989962 -0.15045859 -0.085104115 0.10067296 -0.064978518 -0.17865452 -0.05845198 0.13052772 -0.069537908 -0.011407402 -0.11666285 -0.078827977 0.24135955 -0.037901673 -0.070046015 -0.040613204 -0.1023039 0.22023574 0.30466065 0.11408279 -0.080147035 0.014738204 0.06887272 0.18623394 -0.19130033 0.026409475 -0.097806014 -0.22120507 -0.10720387 0.29549366 -0.055490639 0.341885 0.17497809 -0.48038337 -0.3181341 -0.17822477 0.092365168 0.084697671 0.12147241 0.035237364 0.1704594 0.064339317 0.25253901 0.031622898 0.0035501928 0.051530022 0.17296556 0.51999032 0.0037451328 -0.25516772 0.11724777 -0.5276196 -0.023549739 0.37199742 0.22961269 -0.050068405 0.16615286 0.068302318 0.31441215 -0.25404102 -0.28508446 0.0066825915 0.16937208 -0.28920612 0.14850286 -0.15394898 -0.25357664 0.049329154 0.14611845 0.1987211 -0.2079567 0.15575503 0.090545818 0.20420928 -0.090705708 -0.013210943 -0.16556902 -0.055012029 0.073861979 0.10732034 -0.15006897 0.011577928
prime 0.011224118 -0.068768241 0.26879317 0.26957953 -0.022085585 0.19559099 -0.041419737 0.096938923 0.25563881 0.1147531 0.01224508 -0.22941937 0.081558384 -0.012685128 0.14025086 -0.4041203 0.085296966 0.17109981 0.12460525 -0.14427738 -0.091430649 0.10339581 -0.061266553 -0.17405774 -0.05577635 0.12099421 -0.061863504 -0.011026528 -0.11943191 -0.067637935 0.23904304 -0.03331542 -0.07204739 -0.049422652 -0.099369913 0.20389393 0.29638416 0.11446962 -0.07350155 0.012620494 0.066819511 0.17359512 -0.19040099 0.026015511 -0.097901508 -0.20894772 -0.092253655 0.28649127 -0.057375133 0.33095652 0.16693687 -0.45931455 -0.30950898 -0.17823969 0.086239748 0.078366138 0.12504335 0.03151501 0.15606862 0.055311114 0.24639647 0.0344611 0.0021254714 0.050185684 0.15789481 0.50191534 0.0034809923 -0.25382367 0.10641991 -0.51245421 -0.018470161 0.3570326 0.22028197 -0.047796872 0.15497109 0.065336592 0.30660105 -0.2497146 -0.27625859 0.011037741 0.1675363 -0.27699542 0.14442651 -0.14393209 -0.24864104 0.042775679 0.1403373 0.19477887 -0.19594865 0.1415064 0.082451314 0.20267276 -0.086076766 -0.0078244507 -0.16333739 -0.044585295 0.065367475 0.09903542 -0.14024062 0.0093213953
also 0.014076966 -0.077506416 0.27167618 0.28518602 -0.02051604 0.19421938 -0.044734135 0.10451301 0.27170646 0.12467425 0.010366845 -0.23764336 0.089059144 -0.012150348 0.154595 -0.41900948 0.089357555 0.17776769 0.12278837 -0.15238576 -0.089897923 0.1042751 -0.073176838 -0.18119764 -0.055546671 0.1326095 -0.065547876 -0.0095742662 -0.12347694 -0.078373656 0.24645843 -0.042340938 -0.073584758 -0.044703037 -0.10898332 0.21929704 0.30709502 0.12165407 -0.077 0.015031737 0.069404811 0.18299159 -0.19911377 0.02820769 -0.10308199 -0.22549686 -0.1043735 0.29574755 -0.051282398 0.34780946 0.1726853 -0.48052794 -0.32171431 -0.18295978 0.093053207 0.082149632 0.12271056 0.02942281 0.16378991 0.06428647 0.25239614 0.030511461 0.0017692883 0.052226242 0.17579903 0.51734072 0.0068692476 -0.26242188 0.11626436 -0.53538936 -0.01731319 0.36989012 0.22679123 -0.042263098 0.16142423 0.069807656 0.30947372 -0.2520923 -0.28582531 0.0041376194 0.17095073 -0.28903651 0.14728425 -0.15202826 -0.25330681 0.044468667 0.15382202 0.20526037 -0.20298374 0.15502147 0.0914606 0.20800564 -0.087035283 -0.0051927925 -0.1640908 -0.051515196 0.072589979 0.10681393 -0.1484251 0.011659522
learn 0.010540895 -0.07154087 0.25599715 0.25932992 -0.019240532 0.17935342 -0.05384741 0.10269579 0.25086206 0.10729562 0.011202524 -0.22189978 0.07953392 -0.019733729 0.14327951 -0.39132276 0.077143148 0.17068779 0.11200717 -0.13859709 -0.082562126 0.089888252 -0.057176374 -0.1683996 -0.057302251 0.11933045 -0.063419715 -0.016970225 -0.10907366 -0.066133201 0.22177404 -0.030002361 -0.061617304 -0.037451167 -0.098943934 0.20199075 0.27888471 0.11126335 -0.076507203 0.013157425 0.057452314 0.16620059 -0.18523213 0.030578241 -0.095124215 -0.20161429 -0.10307204 0.27445969 -0.055753 0.31844813 0.16105817 -0.44745225 -0.30185568 -0.17090109 0.086678326 0.07806436 0.11655879 0.033109754 0.15745886 0.049874183 0.23626058 0.033414789 -0.0027800803 0.052085578 0.16570351 0.47779936 0.0042790449 -0.24528691 0.10995054 -0.4883731 -0.017989026 0.34264341 0.21257421 -0.040302027 0.1598185 0.065348558 0.28822973 -0.24071248 -0.26746723 -0.0025992249 0.16485697 -0.2665287 0.14842825 -0.1408435 -0.23966743 0.044342734 0.13787423 0.19096701 -0.19808814 0.15031253 0.080737032 0.19671859 -0.087063923 -0.0064618373 -0.15038161 -0.049537841 0.062435981 0.099315606 -0.1303556 0.0059238188
qualiti 0.016282763 -0.063401967 0.23648933 0.24498129 -0.01142578 0.16618532 -0.044465683 0.095783696 0.23518938 0.10185725 0.010606336 -0.20607509 0.073317975 -0.011266153 0.12750997 -0.35709095 0.07689444 0.15916498 0.1043018 -0.12824447 -0.079028249 0.08224269 -0.059643641 -0.1599268 -0.044813134 0.10907936 -0.064789794 -0.0051081572 -0.10380563 -0.0658926 0.20760079 -0.035578687 -0.060329158 -0.043965805 -0.096760288 0.18874446 0.25998405 0.099275887 -0.066323198 0.015098291 0.05822676 0.16233689 -0.1737428 0.029835442 -0.079476535 -0.19052853 -0.090935618 0.25787762 -0.045498233 0.30037865 0.15031306 -0.41921651 -0.27400157 -0.160004 0.078361362 0.070023283 0.1116851 0.025491664 0.14404801 0.05321268 0.21948045 0.032275036 0.0054283659 0.049377583 0.14906843 0.44248649 0.0084670708 -0.22768608 0.1046636 -0.45937771 -0.020546811 0.32201719 0.19597235 -0.040653802 0.13509946 0.056925725 0.27564648 -0.21709551 -0.24466617 0.0084308283 0.15561037 -0.2505036 0.12533547 -0.13250978 -0.22087173 0.041036531 0.12979911 0.17731875 -0.17500576 0.13828419 0.072236329 0.17801242 -0.085154548 -0.01255218 -0.14764 -0.047081571 0.062880389 0.097902395 -0.13178316 0.0082131065
well 0.018183144 -0.072704248 0.25275874 0.26427996 -0.012753744 0.17972293 -0.04462504 0.094676323 0.24322762 0.11534107 0.014066467 -0.21608801 0.082739256 -0.012447498 0.14022937 -0.38697204 0.085667714 0.16598345 0.10919635 -0.14251435 -0.088123582 0.092135809 -0.061384752 -0.1707961 -0.052904926 0.11843809 -0.066392362 -0.0098770093 -0.10550176 -0.072336636 0.22539708 -0.03281277 -0.067613229 -0.040341444 -0.10159526 0.20620969 0.28320426 0.11320004 -0.068355896 0.013088701 0.058881398 0.16707765 -0.18511333 0.027810454 -0.091477707 -0.20899197 -0.09357135 0.26840693 -0.054164588 0.32007477 0.16544902 -0.44422895 -0.29543117 -0.1652641 0.089255005 0.077694781 0.11675811 0.027926765 0.15390925 0.058187626 0.22954784 0.032763798 -0.0030035116 0.045685232 0.16368532 0.48144627 -0.00012596576 -0.23819387 0.10850642 -0.49533862 -0.017642448 0.34399527 0.21288399 -0.04571674 0.15248975 0.058486842 0.29105482 -0.23697719 -0.26279056 0.00065776054 0.1607278 -0.26068801 0.14284724 -0.14403082 -0.2393568 0.049260866 0.13520542 0.18566518 -0.18707006 0.14352964 0.079844579 0.18703203 -0.082775205 -0.01109532 -0.15545379 -0.047678918 0.070330426 0.093997024 -0.13925277 0.0023910655
- 0.020905878 -0.073170505 0.28481984 0.29584789 -0.019612908 0.20869306 -0.055743042 0.099395946 0.27906194 0.13140789 0.018106196 -0.24989556 0.088949516 -0.019344468 0.16294613 -0.43650734 0.087599725 0.18875611 0.11906075 -0.15533696 -0.090947524 0.11068887 -0.063240387 -0.1923743 -0.053748101 0.14231049 -0.069065124 -0.005205994 -0.12222845 -0.076920658 0.24515389 -0.037390001 -0.076169424 -0.046441115 -0.1082494 0.22369319 0.30923429 0.12419295 -0.072814547 0.016819678 0.068304665 0.19659151 -0.20370656 0.024434024 -0.098846078 -0.23303171 -0.09891782 0.31119365 -0.055900753 0.36418507 0.18706313 -0.5043869 -0.33464548 -0.19419062 0.090853594 0.087298743 0.12384015 0.042113859 0.17714664 0.057406444 0.26652333 0.03447045 0.0015094695 0.063278057 0.17952603 0.53086656 0.0039732754 -0.26424739 0.12724811 -0.54911214 -0.019904379 0.37628114 0.24072522 -0.047036946 0.16613589 0.06206923 0.32601139 -0.25809067 -0.30027941 0.0079570469 0.17938052 -0.29734758 0.15033941 -0.1603252 -0.25871086 0.053951796 0.160753 0.20805669 -0.22076052 0.15545937 0.086259484 0.21146202 -0.086492263 -0.015645018 -0.17595853 -0.043508351 0.08032658 0.11879341 -0.15210527 0.0041277059
s 0.019025644 -0.075200811 0.25087002 0.25599223 -0.021174893 0.17223579 -0.048190262 0.093011543 0.23816708 0.10722015 0.0164354 -0.21098138 0.077160463 -0.0078042434 0.14064106 -0.38333854 0.082094863 0.15926875 0.10798384 -0.13799618 -0.077451743 0.089482404 -0.05836191 -0.1670244 -0.050194453 0.12298581 -0.057018116 -0.0088938819 -0.10806097 -0.070467733 0.21728079 -0.0354724 -0.064223878 -0.042243164 -0.094359554 0.19706635 0.27341631 0.10806111 -0.074767992 0.015810583 0.062285528 0.1662903 -0.17675829 0.027661355 -0.090417594 -0.20361438 -0.098387875 0.26425031 -0.049820207 0.31273949 0.16251905 -0.42855439 -0.28600845 -0.16539674 0.076354846 0.077156685 0.11210533 0.025967747 0.15154982 0.054348998 0.22188331 0.035225537 -0.0046273717 0.043813754 0.14757946 0.46932685 0.0050772065 -0.2282699 0.10857441 -0.47187635 -0.023459485 0.32574415 0.20984794 -0.042205777 0.15096934 0.0588229 0.27939758 -0.23076385 -0.25249356 0.0003291301 0.15559565 -0.26095396 0.13684615 -0.13632968 -0.23757195 0.043599579 0.12962157 0.18218842 -0.18617311 0.14144607 0.077968739 0.18680128 -0.087091662 -0.0114428 -0.14685452 -0.040539525 0.063902035 0.10070357 -0.13047768 0.0039079012
want 0.0096615683 -0.072134294 0.26770121 0.27279037 -0.013459663 0.19297732 -0.042052861 0.10662304 0.26570442 0.12010942 0.0097864475 -0.23470773 0.085950136 -0.016293099 0.1467697 -0.41106787 0.085824452 0.17096755 0.1147404 -0.14438519 -0.090925209 0.1057122 -0.069305427 -0.18064721 -0.055682134 0.12379629 -0.064103104 -0.010639678 -0.12056475 -0.079070896 0.24337646 -0.043173306 -0.067460142 -0.046277054 -0.10738282 0.2134181 0.30165729 0.11197581 -0.077276871 0.013017889 0.068474315 0.18254516 -0.1890709 0.034118593 -0.094798684 -0.21942641 -0.10114662 0.28630826 -0.0585353 0.34431306 0.17641075 -0.47520784 -0.31838208 -0.17728184 0.084663413 0.083040543 0.11999904 0.033987083 0.16026475 0.066000536 0.24678764 0.03623363 0.0012073627 0.050801542 0.16871282 0.51378423 0.0051952647 -0.25611293 0.11720165 -0.51932478 -0.023676196 0.36417025 0.22890164 -0.047426086 0.16489404 0.060820684 0.30535328 -0.24682239 -0.27663291 0.0028273177 0.16514981 -0.27874589 0.14652348 -0.15548353 -0.2564168 0.047335912 0.14823446 0.20226347 -0.20035283 0.15252458 0.086652055 0.20513308 -0.084891602 -0.0096587809 -0.16290373 -0.05119634 0.074668325 0.10647152 -0.14216086 0.0044342326
fun 0.017973162 -0.06780351 0.24994133 0.25811994 -0.014646592 0.17919497 -0.043045115 0.098444022 0.24360685 0.1071494 0.012021326 -0.21451962 0.081427902 -0.014910623 0.14345722 -0.38887674 0.08239761 0.15908515 0.10855298 -0.13520856 -0.085746527 0.090449668 -0.061432499 -0.1688188 -0.050148778 0.11966844 -0.06719435 -0.014014435 -0.10555733 -0.065974943 0.2202183 -0.030859267 -0.06327083 -0.042644631 -0.095870756 0.20258735 0.28106311 0.11067612 -0.07509084 0.011751753 0.062061336 0.16521204 -0.18361425 0.026323739 -0.093563773 -0.20403457 -0.099413112 0.27426288 -0.053227846 0.31478852 0.15894149 -0.43626738 -0.29657587 -0.17306535 0.08624056 0.075027607 0.1130536 0.033460658 0.15568227 0.05810447 0.23042011 0.028740034 0.0017120468 0.047900341 0.15718876 0.4783957 8.0125421e-05 -0.23983651 0.10987049 -0.49048331 -0.023211541 0.34145984 0.21076104 -0.038734205 0.14677149 0.061124098 0.28854272 -0.22802649 -0.26175964 0.0046684458 0.15647504 -0.25922328 0.14304216 -0.13836747 -0.23364489 0.038446981 0.13842197 0.18430515 -0.19291802 0.14942163 0.076628067 0.19095714 -0.083795995 -0.00978259 -0.15161273 -0.046943296 0.068191729 0.10388272 -0.12881765 0.0056280829
am 0.016005874 -0.078341193 0.26986924 0.26916152 -0.015534127 0.19041282 -0.050200086 0.098573722 0.26022118 0.11956827 0.016065964 -0.2325024 0.091609269 -0.015699374 0.15274082 -0.41184932 0.088768817 0.17601006 0.125043 -0.13925381 -0.083251558 0.096229665 -0.063210808 -0.17055513 -0.052778717 0.13242647 -0.067162275 -0.01256898 -0.11350843 -0.069241673 0.23233218 -0.037338603 -0.074124552 -0.046394095 -0.10591072 0.20700526 0.29570147 0.11689857 -0.075084761 0.017572956 0.067178912 0.18016055 -0.19660756 0.032406401 -0.092944793 -0.22002065 -0.1038345 0.28862113 -0.054533828 0.33090574 0.16972503 -0.47110465 -0.31542316 -0.18246968 0.091437154 0.087223291 0.11578589 0.028975939 0.16311193 0.053431965 0.24041097 0.031548608 -0.0015383228 0.048123538 0.17038599 0.50324339 0.0010478214 -0.24913535 0.11198465 -0.51452082 -0.021413058 0.36152503 0.22032629 -0.044987828 0.16559696 0.065150209 0.30082428 -0.25243929 -0.28144312 0.0030696378 0.17400762 -0.28323755 0.15273939 -0.14833418 -0.25804707 0.044083927 0.14693506 0.19604537 -0.20388559 0.15063122 0.080486946 0.20469283 -0.091045067 -0.01125056 -0.16576159 -0.04554667 0.071882322 0.10300038 -0.14210765 0.0045402036
room 0.012616343 -0.077425689 0.26573628 0.26739183 -0.017755546 0.19353709 -0.041862845 0.10437445 0.25744346 0.12124449 0.019810116 -0.22531201 0.083469734 -0.0092725726 0.14458434 -0.40306321 0.088254511 0.17587008 0.11821277 -0.14128728 -0.08687178 0.10058188 -0.068232417 -0.17208533 -0.047882434 0.12278356 -0.069023125 -0.014022992 -0.11581995 -0.072158977 0.23201177 -0.037487879 -0.071289621 -0.039794259 -0.10570388 0.21307413 0.29084522 0.11724146 -0.070788972 0.012877156 0.060993373 0.18181521 -0.18479769 0.024103586 -0.089598931 -0.20944139 -0.098660842 0.28112724 -0.051564943 0.33378866 0.16981772 -0.46295646 -0.3097977 -0.17088683 0.085535549 0.078694679 0.11966232 0.032273084 0.16045001 0.056804296 0.24293499 0.029445695 0.00096274004 0.054415546 0.16825239 0.4996911 -8.2924462e-06 -0.24378075 0.11073047 -0.50998533 -0.02039424 0.35508218 0.22338256 -0.047489095 0.15476407 0.064561374 0.29936209 -0.24780916 -0.27513361 0.00077751512 0.16115795 -0.27892277 0.14473203 -0.15056361 -0.24232106 0.045535509 0.14223699 0.19134437 -0.19604012 0.14690396 0.07820341 0.19537172 -0.086939611 -0.0078833662 -0.15563473 -0.049070377 0.070875026 0.1002458 -0.14229037 0.012046528
far 0.013399159 -0.065719225 0.25369817 0.25784463 -0.012981553 0.18470031 -0.049537044 0.0981768 0.23992325 0.11025625 0.013571524 -0.21821749 0.083729863 -0.0126646 0.13713956 -0.38457358 0.078293584 0.16835333 0.11500499 -0.14135952 -0.082640998 0.093923472 -0.05813203 -0.16972686 -0.049251199 0.11924239 -0.059612922 -0.015300799 -0.10390422 -0.064798974 0.21971281 -0.040119912 -0.066962957 -0.036704227 -0.09618587 0.19619626 0.27347928 0.11272208 -0.068463027 0.013315015 0.058317825 0.1686925 -0.18136843 0.023605935 -0.086541861 -0.19958378 -0.10065707 0.27501151 -0.054437526 0.31588662 0.16139331 -0.4429563 -0.29279697 -0.17399892 0.088074446 0.082499713 0.11172557 0.033417039 0.14789958 0.053444382 0.23415364 0.031919669 -0.0035421483 0.046910472 0.16009465 0.46939427 0.004075232 -0.2381918 0.11057471 -0.48448512 -0.017365668 0.33632225 0.21160358 -0.044027142 0.15566868 0.062398016 0.28166643 -0.23499791 -0.25919294 -0.0026481433 0.1585405 -0.26591447 0.14208893 -0.1420707 -0.24141721 0.04813325 0.13413502 0.18551502 -0.19256724 0.14289869 0.08241865 0.18367483 -0.089173682 -0.014774166 -0.14988551 -0.044885885 0.068716772 0.10181072 -0.12774672 0.0092916302
alarm 0.014200337 -0.078019656 0.27414116 0.29688519 -0.016803512 0.20988972 -0.053056251 0.10963878 0.27284193 0.13018741 0.011779987 -0.2384581 0.091666698 -0.012151657 0.15481195 -0.4269937 0.094156049 0.1864751 0.12482228 -0.15002348 -0.088224813 0.10283888 -0.065029033 -0.18431181 -0.055717859 0.13845822 -0.067580037 -0.018247675 -0.13099332 -0.081764333 0.2517699 -0.046919294 -0.0702639 -0.048989363 -0.1066566 0.22561102 0.31018791 0.12528087 -0.083468616 0.014529899 0.063495792 0.19646761 -0.20514272 0.026489353 -0.10789327 -0.22614485 -0.10493506 0.29923642 -0.059505202 0.35200623 0.1827004 -0.49534145 -0.33529234 -0.18627252 0.096269585 0.091505975 0.13111189 0.03879242 0.17496635 0.059364874 0.25600606 0.040199533 0.003185089 0.057070296 0.17902963 0.53010136 -0.0014129664 -0.27293438 0.11819702 -0.54229975 -0.025870036 0.37045693 0.24283086 -0.044263829 0.17364556 0.06654191 0.32305911 -0.26209757 -0.2875036 0.005373165 0.18487637 -0.29524848 0.15167773 -0.15982147 -0.26768768 0.049941495 0.15796238 0.21107531 -0.21611439 0.15397628 0.091559716 0.21442713 -0.090305448 -0.0090380143 -0.17204708 -0.054444168 0.077483356 0.10786008 -0.15055908 0.011739189
buy 0.013161896 -0.071549863 0.2598812 0.26278815 -0.017065886 0.18611635 -0.04289737 0.096580088 0.24651217 0.11892637 0.0085665742 -0.22088929 0.08444798 -0.010949541 0.13595244 -0.38996753 0.08682394 0.16294309 0.11203552 -0.13747525 -0.086074658 0.091414295 -0.063468948 -0.16692908 -0.046288803 0.12462381 -0.062865093 -0.0070446967 -0.10724622 -0.074326791 0.23145092 -0.041928351 -0.065408438 -0.046532828 -0.10026479 0.20336832 0.28051856 0.10892503 -0.073851131 0.015831241 0.062081333 0.16985136 -0.18178894 0.027114663 -0.091214187 -0.2068169 -0.0932464 0.27221021 -0.055200268 0.32692578 0.16989014 -0.4518663 -0.30313888 -0.1668345 0.085564889 0.078531764 0.11761079 0.026431022 0.15072438 0.058274843 0.2343189 0.0302906 0.002492618 0.048743583 0.1548674 0.48518303 0.0044342247 -0.23926482 0.109082 -0.49899274 -0.017448038 0.34838572 0.21899872 -0.042997614 0.15023685 0.062857017 0.28998765 -0.23890994 -0.27145618 0.0043963767 0.1600755 -0.2640661 0.13649625 -0.1490749 -0.23975125 0.04626267 0.13946439 0.1918003 -0.19311413 0.13996643 0.082546912 0.18881121 -0.08213672 -0.0067575318 -0.14977491 -0.04195258 0.064980797 0.10560763 -0.1389167 0.010091781
listen 0.015963588 -0.076085635 0.25560251 0.2716572 -0.017172417 0.18645313 -0.043048371 0.10219458 0.25766531 0.11269449 0.013044854 -0.22356841 0.082617074 -0.011285798 0.14409386 -0.39395034 0.087194197 0.16775867 0.12041128 -0.14653884 -0.091282181 0.099382982 -0.065513983 -0.17538184 -0.051469136 0.12705666 -0.071317516 -0.016633367 -0.11680607 -0.075974733 0.23089094 -0.042789515 -0.072994083 -0.04560978 -0.1064004 0.2027515 0.28563997 0.11339145 -0.07431604 0.010520158 0.058327828 0.17224099 -0.18674622 0.025334137 -0.092118673 -0.21305792 -0.097108968 0.2770505 -0.05546011 0.32678103 0.16860615 -0.45676497 -0.30179021 -0.17468807 0.080997527 0.077396676 0.12393683 0.035826668 0.15748362 0.053695116 0.23561768 0.035198882 -0.0043976367 0.053424004 0.15789725 0.48961484 0.0068656486 -0.24393104 0.10801209 -0.50362021 -0.017295698 0.35099125 0.22073075 -0.038989674 0.15274584 0.069211841 0.29637504 -0.23814148 -0.26767454 -0.0019851585 0.16009606 -0.27593333 0.14869244 -0.14490928 -0.2395636 0.042398181 0.14169045 0.18604785 -0.19784203 0.15187111 0.081567496 0.19606736 -0.090449236 -0.011347365 -0.1605486 -0.050227929 0.072717719 0.10559145 -0.13716294 0.0082597705
even 0.017967429 -0.081442177 0.27409089 0.28348434 -0.020971745 0.19496267 -0.047170125 0.10080114 0.26817271 0.12234014 0.014538354 -0.23130718 0.086882673 -0.015299183 0.15333579 -0.41868842 0.08774431 0.17971301 0.11998882 -0.14906947 -0.086046256 0.10585134 -0.068749562 -0.17530409 -0.057510823 0.13157149 -0.068210721 -0.010220588 -0.1150778 -0.076002389 0.24178216 -0.03862676 -0.07715185 -0.048132442 -0.10623419 0.22110343 0.30791819 0.11791708 -0.083268456 0.012917439 0.063081659 0.18754916 -0.199837 0.030166004 -0.10036493 -0.22007409 -0.10260345 0.29635006 -0.057064202 0.34973943 0.18130581 -0.48105562 -0.32468507 -0.18713471 0.094155334 0.080984749 0.12794358 0.028929709 0.16479072 0.059507415 0.25520062 0.029461576 -0.0048115305 0.055769723 0.17326452 0.52171439 0.0015474681 -0.26225066 0.11698953 -0.53677016 -0.023028094 0.37219107 0.23523092 -0.048497342 0.16373099 0.068179682 0.31297255 -0.25339824 -0.28661153 0.0010241276 0.16944271 -0.28606009 0.15466221 -0.16091746 -0.26246616 0.053287685 0.14525165 0.19985236 -0.21383566 0.15543762 0.087116383 0.207027 -0.087312467 -0.0086312238 -0.15971164 -0.045388389 0.076981157 0.11375032 -0.14693329 0.0061164163
got 0.01446222 -0.073578805 0.25506148 0.2590422 -0.019411065 0.17738053 -0.043762539 0.098153666 0.24319346 0.11695664 0.011859714 -0.21536978 0.078835145 -0.013452555 0.13429305 -0.38202143 0.078931592 0.16027468 0.10864517 -0.13917576 -0.082914174 0.092419133 -0.058386043 -0.16327934 -0.046161715 0.12094043 -0.062032282 -0.015988253 -0.10527506 -0.071762688 0.21747491 -0.040486921 -0.06492424 -0.038844932 -0.10037328 0.19954859 0.27871573 0.11152747 -0.066426449 0.011650043 0.057766013 0.16699429 -0.18190683 0.02632067 -0.08905901 -0.19957456 -0.089954928 0.27145785 -0.05252349 0.31795025 0.16382696 -0.43533596 -0.29365924 -0.16383222 0.082341485 0.081420779 0.11474531 0.029347936 0.15539147 0.058652334 0.22845116 0.033795897 0.0045351479 0.042354479 0.15999559 0.47624275 0.0070858239 -0.24123083 0.10356972 -0.48819119 -0.013315978 0.34099558 0.20914543 -0.040072035 0.14700252 0.06364426 0.28540549 -0.23645537 -0.2619133 0.00072248664 0.16460182 -0.26464397 0.13844623 -0.14608917 -0.23277201 0.045234311 0.13671663 0.18762852 -0.1856671 0.14216617 0.08059594 0.19012192 -0.085689351 -0.011916708 -0.15267113 -0.046899088 0.066539772 0.093607225 -0.13678811 0.01035895
turn 0.015997572 -0.082020141 0.29453 0.304616 -0.017771143 0.21193637 -0.050873678 0.11486576 0.29014966 0.13834828 0.019362299 -0.2610189 0.090992667 -0.014936067 0.16200893 -0.46299586 0.092896529 0.19934304 0.12517257 -0.1658023 -0.10456391 0.12030929 -0.076169692 -0.19275485 -0.053877227 0.14477494 -0.080379814 -0.018939167 -0.13658366 -0.089938059 0.26566643 -0.048163213 -0.083175413 -0.047866497 -0.11237867 0.23610812 0.33343425 0.13348193 -0.089068353 0.015570379 0.078193858 0.19960028 -0.2114418 0.024895646 -0.10760171 -0.24987006 -0.11825592 0.3152878 -0.06045929 0.38568586 0.19557512 -0.52480394 -0.35244906 -0.19342183 0.096005805 0.09515325 0.13682556 0.032225203 0.18663679 0.067472219 0.27312544 0.034434982 -0.0047021159 0.062127259 0.18851246 0.5658592 -0.002690743 -0.28394747 0.13109094 -0.57405901 -0.027154077 0.39831674 0.25425389 -0.051473688 0.17386079 0.075855635 0.33492672 -0.2742902 -0.3111968 0.0041074012 0.18051787 -0.31133386 0.17187442 -0.17629556 -0.28450739 0.049281199 0.16742076 0.21248379 -0.23028621 0.16513747 0.096932694 0.22454582 -0.10220228 -0.01484052 -0.17706379 -0.049388513 0.085285701 0.12308522 -0.15872306 0.016060311
plus 0.0085759247 -0.068141878 0.25464782 0.2530736 -0.0090165492 0.18694678 -0.045718089 0.095690891 0.24763618 0.1144729 0.011680625 -0.21428505 0.084979698 -0.016314873 0.14205666 -0.37992552 0.081498504 0.17140113 0.11433067 -0.14183255 -0.08565557 0.09053199 -0.067830577 -0.16764547 -0.051240165 0.11219445 -0.059192047 -0.0081587294 -0.10902131 -0.067520149 0.22566429 -0.035284497 -0.064518295 -0.042404566 -0.10114671 0.19758263 0.2806271 0.10611317 -0.072450452 0.012434432 0.056131992 0.16703989 -0.17623886 0.023204729 -0.094587982 -0.20326719 -0.10058265 0.26640019 -0.05624726 0.31617147 0.1636439 -0.4393349 -0.29160273 -0.16273481 0.076149374 0.07823918 0.12150981 0.032399427 0.15385588 0.060176089 0.23116188 0.027501401 -0.0015637741 0.051059168 0.16172814 0.47281432 0.0041736057 -0.23784338 0.11094524 -0.48236337 -0.023532679 0.34388977 0.21140146 -0.046425413 0.15377362 0.064183295 0.28285873 -0.23400694 -0.26669359 0.0013913679 0.15438007 -0.26382083 0.14328969 -0.1426568 -0.24075378 0.045400783 0.14131583 0.18755721 -0.18860084 0.13494338 0.076996826 0.18721391 -0.08140704 -0.0049548107 -0.15411724 -0.043008968 0.067197844 0.10209602 -0.14003088 0.014070598
make 0.011550566 -0.076650985 0.27380443 0.28299946 -0.02127072 0.19962835 -0.046886515 0.1011633 0.2666676 0.12013376 0.018515451 -0.2301323 0.091776967 -0.017085979 0.15099213 -0.42133641 0.090601385 0.17542113 0.11844021 -0.1467776 -0.085248321 0.10606957 -0.067084678 -0.17975375 -0.05677544 0.13183996 -0.073345102 -0.012944486 -0.1180903 -0.079803057 0.24421564 -0.043889523 -0.076161616 -0.046471674 -0.10725041 0.22199938 0.3011409 0.11820945 -0.084092326 0.014131842 0.066680841 0.18412468 -0.19245508 0.02539297 -0.095705673 -0.22170497 -0.10220541 0.28901693 -0.055974524 0.34021068 0.17714469 -0.48037171 -0.31479982 -0.17891172 0.092199191 0.085505083 0.11964726 0.031510767 0.16441214 0.06366469 0.25320524 0.036240578 -0.0032114759 0.051242888 0.17387699 0.51398414 0.0058351886 -0.2519559 0.11811602 -0.52626872 -0.021607051 0.36906177 0.22959577 -0.050168719 0.15925075 0.065292805 0.3072508 -0.25599471 -0.28694195 0.0011092798 0.1758405 -0.28348297 0.15583861 -0.15889524 -0.25823593 0.044426706 0.14790396 0.19894437 -0.20161454 0.15668893 0.084869795 0.20228848 -0.085211538 -0.013324397 -0.15918654 -0.045277335 0.068139002 0.10862919 -0.14383812 0.012809317
everyth 0.0083399722 -0.070649758 0.23779586 0.24729794 -0.014884121 0.17357624 -0.04365823 0.095645167 0.23623841 0.10906246 0.0070368042 -0.20793606 0.080100246 -0.01296468 0.13155749 -0.37053895 0.073399454 0.15843171 0.10706364 -0.12612884 -0.083199836 0.092825003 -0.057712015 -0.16160052 -0.043276802 0.11885347 -0.065196179 -0.014642226 -0.10820766 -0.065011509 0.21313821 -0.028851066 -0.061970573 -0.042762827 -0.092691354 0.18942982 0.26378024 0.099779375 -0.073228963 0.017747696 0.053529799 0.15935498 -0.17036681 0.022589669 -0.081920795 -0.19590245 -0.09473215 0.25858369 -0.05337555 0.29790145 0.15120701 -0.4139728 -0.28425124 -0.16019329 0.078864403 0.074789964 0.10802052 0.032943454 0.14806712 0.055854455 0.21868704 0.031208571 -0.0035797395 0.048873667 0.14516 0.44834116 0.0069641764 -0.22105299 0.10612581 -0.46601665 -0.013562943 0.32044786 0.19947039 -0.045387536 0.14503714 0.060895756 0.27468312 -0.21757977 -0.25131634 -0.0015284683 0.15504268 -0.24899001 0.13196549 -0.13425727 -0.2270215 0.046110295 0.13011628 0.17009981 -0.18365067 0.13912909 0.078087255 0.17719796 -0.080570899 -0.0079318425 -0.1473693 -0.048941553 0.062712938 0.096740186 -0.1276415 0.0056073423
tri 0.015783925 -0.071417354 0.27637342 0.29042089 -0.021193853 0.2026471 -0.052130643 0.10836553 0.27339068 0.12658852 0.01633836 -0.23664111 0.090462595 -0.015231134 0.15307139 -0.42629597 0.094737992 0.18326841 0.12231308 -0.15085332 -0.093254372 0.10654136 -0.067565292 -0.18697563 -0.052665222 0.13034323 -0.073946692 -0.017781904 -0.12709095 -0.075579599 0.2485248 -0.041236036 -0.069153599 -0.05056392 -0.11029664 0.22252929 0.3051354 0.11595695 -0.07834468 0.01115681 0.064500079 0.18735456 -0.1947771 0.031935267 -0.1041725 -0.22571282 -0.10756511 0.29563084 -0.053462062 0.35100186 0.1820841 -0.49083883 -0.32782236 -0.18100792 0.09191063 0.08292181 0.12966563 0.033400498 0.16550416 0.067302741 0.25808197 0.030620696 -6.4273328e-05 0.051616695 0.17711228 0.52021122 -0.0016761894 -0.26413006 0.116092 -0.53657305 -0.019183233 0.37038332 0.23235866 -0.0451256 0.16699183 0.071944393 0.312051 -0.25949764 -0.29233858 0.0047195968 0.17552876 -0.28947258 0.15825033 -0.15890494 -0.26318905 0.048603211 0.1552334 0.20766073 -0.21314372 0.16125429 0.088904165 0.20166408 -0.089899257 -0.0081937443 -0.1684162 -0.046141062 0.077330805 0.10707885 -0.15165187 0.011583354
this 0.013919601 -0.071785316 0.2361194 0.24803348 -0.016075337 0.17468145 -0.042620953 0.092371121 0.23259541 0.11136727 0.011214627 -0.20834824 0.081395939 -0.010421158 0.13168004 -0.37145182 0.082011662 0.15645416 0.11039766 -0.13322984 -0.074750766 0.092543267 -0.059344847 -0.15922274 -0.049980637 0.11653553 -0.063002497 -0.011057656 -0.10554451 -0.066426851 0.21445952 -0.039258212 -0.065885104 -0.043088928 -0.098516114 0.19635838 0.26627612 0.10544001 -0.074513204 0.010903006 0.056049597 0.16518012 -0.17341205 0.023775365 -0.084724113 -0.19265203 -0.092492022 0.25963461 -0.04578026 0.30702519 0.1580686 -0.41716221 -0.28036594 -0.16451485 0.081149265 0.073757321 0.1061547 0.032162569 0.15027252 0.056676619 0.22447407 0.02550265 -0.0026014745 0.048626203 0.15447076 0.45046556 0.0032023091 -0.23160759 0.098421916 -0.46577403 -0.01251643 0.32612482 0.20381264 -0.045462575 0.14697279 0.058818344 0.2765581 -0.22448502 -0.24953009 0.0047939345 0.15608814 -0.25584516 0.13525742 -0.13053972 -0.22400327 0.039021961 0.12619849 0.17654875 -0.18440673 0.13119912 0.072128229 0.17730069 -0.079528615 -0.011052592 -0.14513329 -0.048558012 0.064743683 0.097401917 -0.12587233 0.0096197659
screen 0.011344569 -0.084739275 0.28633508 0.29924375 -0.017015273 0.21223898 -0.047040369 0.11091276 0.27989706 0.13240664 0.018186782 -0.25190258 0.092522658 -0.018478846 0.16506349 -0.44093564 0.094759315 0.19142056 0.13053828 -0.15639621 -0.10001931 0.11112516 -0.072575748 -0.19073188 -0.062459007 0.13647419 -0.075224325 -0.012926571 -0.12386403 -0.077165022 0.25881192 -0.046842996 -0.079514898 -0.050680634 -0.10956538 0.23610976 0.31414914 0.12789969 -0.080233768 0.017265704 0.072756618 0.19752096 -0.20714276 0.031905305 -0.10689188 -0.23082495 -0.11118195 0.30847046 -0.06342677 0.36269984 0.1829403 -0.50371611 -0.3420229 -0.19781156 0.10031784 0.094171785 0.13653408 0.031925749 0.17439482 0.066684254 0.26386645 0.042684115 -0.0054544122 0.052372407 0.18130665 0.55176312 0.0012940693 -0.27657616 0.1178089 -0.56132948 -0.016600778 0.38447747 0.24697365 -0.048101809 0.17036088 0.067676246 0.32904491 -0.27373734 -0.30501911 0.0057713119 0.18840089 -0.30640367 0.15957347 -0.1598056 -0.27166361 0.051659588 0.15773658 0.21588433 -0.22019361 0.16215949 0.097781427 0.20989709 -0.090500779 -0.0043198843 -0.17940642 -0.049042884 0.082423992 0.11736722 -0.15653752 0.0091688186
hous 0.016535265 -0.073856622 0.27280527 0.28155828 -0.013748635 0.20142168 -0.043453541 0.10047869 0.27018234 0.12457644 0.01274354 -0.23776501 0.085018635 -0.011103786 0.15293993 -0.41437399 0.083451904 0.1808439 0.11641871 -0.14665684 -0.085841551 0.10453834 -0.07229206 -0.18545793 -0.055758815 0.1268414 -0.072757661 -0.0076240376 -0.12372886 -0.075814955 0.24397816 -0.040943984 -0.070644997 -0.041194804 -0.10298728 0.21633995 0.29636508 0.11484199 -0.077555783 0.014969389 0.069606736 0.18573913 -0.19337392 0.023205856 -0.09851715 -0.2264968 -0.10596393 0.29378951 -0.05581826 0.34919816 0.17370601 -0.48121959 -0.31802866 -0.17834184 0.085964672 0.087926149 0.12648581 0.037707109 0.17079143 0.062047925 0.25377446 0.035015423 0.00076756161 0.048489548 0.17134631 0.51644742 -0.000275867 -0.25710732 0.11483864 -0.52567488 -0.017372854 0.37161314 0.23546802 -0.047487833 0.16475351 0.07188382 0.31088635 -0.25111637 -0.28642419 0.0050461562 0.17601842 -0.28745937 0.1465565 -0.15990019 -0.2563656 0.045694888 0.15134461 0.19769856 -0.21012925 0.15866427 0.081798047 0.20272049 -0.09519466 -0.014399407 -0.1628592 -0.044001408 0.07394886 0.10929009 -0.14913368 0.014144013
up 0.017124226 -0.074748911 0.24065806 0.24964325 -0.022561088 0.18409629 -0.050911952 0.091165252 0.23526159 0.10752981 0.015764091 -0.2156302 0.078556485 -0.011826211 0.13776931 -0.37534398 0.083716743 0.15365593 0.10958908 -0.1311456 -0.083882496 0.089290664 -0.06252493 -0.15948926 -0.044154719 0.11595171 -0.064440563 -0.0038009379 -0.1148826 -0.073201232 0.21402237 -0.034856018 -0.058513258 -0.044754591 -0.099403381 0.19130744 0.2703926 0.1022831 -0.068170853 0.011068082 0.051646002 0.17219214 -0.18315512 0.017928438 -0.096325628 -0.20139766 -0.09779337 0.27230412 -0.048787598 0.31199604 0.15346047 -0.43141091 -0.28697053 -0.17342772 0.08009924 0.081166498 0.11528457 0.036455739 0.14638385 0.052201662 0.2322233 0.037740793 0.0045257122 0.051729023 0.15532841 0.46121791 -0.0025769779 -0.23369385 0.11032132 -0.47433329 -0.02132174 0.33017802 0.20826954 -0.047708727 0.142608 0.055971224 0.2710464 -0.22211708 -0.25678554 -0.0029488066 0.15835504 -0.25906718 0.1306857 -0.13055328 -0.23023541 0.036213774 0.13050549 0.17559256 -0.19239374 0.14562806 0.085721917 0.18886706 -0.091016494 -0.012354966 -0.15268807 -0.044712219 0.065366797 0.1022498 -0.1342164 0.003850006
video 0.016889282 -0.073194735 0.25805131 0.27306253 -0.018417265 0.18349463 -0.042052798 0.098009571 0.25470412 0.11750554 0.011940153 -0.22338177 0.079572879 -0.016581524 0.14450103 -0.40564784 0.083466843 0.1690255 0.11176378 -0.14101514 -0.087526634 0.094851233 -0.066491365 -0.17279322 -0.054937758 0.12330499 -0.064233243 -0.017293988 -0.11357526 -0.069380656 0.22687091 -0.04398657 -0.064506687 -0.045771308 -0.097751491 0.20822446 0.29136905 0.11184489 -0.072082937 0.019621341 0.067996748 0.17550325 -0.18275888 0.030689888 -0.08868292 -0.21419361 -0.095308274 0.27962008 -0.048279133 0.33212572 0.16396442 -0.46267232 -0.30661824 -0.17925617 0.084641978 0.083006173 0.12422376 0.029648274 0.15750776 0.057717849 0.23818347 0.027054697 -0.0057647098 0.04472715 0.16459012 0.49406177 0.0036725828 -0.24706449 0.11279747 -0.50790423 -0.021516211 0.35054088 0.22381985 -0.047034927 0.15563264 0.059962004 0.30166492 -0.24439293 -0.26829836 0.0002989631 0.17226455 -0.27953181 0.14686465 -0.151381 -0.24263757 0.040960249 0.14311029 0.19650353 -0.19711433 0.1512688 0.088410966 0.19805764 -0.088920705 -0.0078276768 -0.16176657 -0.050081726 0.068188883 0.10683161 -0.13620172 0.0073318561
app 0.016924933 -0.075556986 0.25524172 0.26111019 -0.019702245 0.19070843 -0.045401052 0.098018289 0.25033104 0.11033341 0.0087091802 -0.22407129 0.083083369 -0.015961841 0.14602296 -0.39620519 0.082038552 0.16732851 0.11124344 -0.14474007 -0.089894734 0.10095437 -0.062878072 -0.1655709 -0.050045889 0.1208889 -0.063747242 -0.013141044 -0.10952238 -0.075098261 0.22804826 -0.037501086 -0.064708307 -0.043584626 -0.1026677 0.20985924 0.28517988 0.11301043 -0.071318425 0.016900409 0.064391375 0.17301051 -0.18324873 0.026889488 -0.09672375 -0.20936193 -0.094508514 0.27869806 -0.048278313 0.32071391 0.16123369 -0.4479205 -0.30689153 -0.17231624 0.083587505 0.079397082 0.11244888 0.027378762 0.15466094 0.057361454 0.23870011 0.027509401 -0.0027177616 0.054131128 0.1601126 0.47998589 -0.0009004306 -0.24515852 0.11307669 -0.50179297 -0.019394951 0.34821898 0.21585742 -0.045365971 0.1539703 0.057954438 0.29197598 -0.23573197 -0.26929045 0.002915231 0.15828884 -0.27073547 0.14369911 -0.14797288 -0.24330527 0.040135391 0.14384024 0.18232049 -0.19184627 0.15136415 0.087456383 0.19075719 -0.086766727 -0.0051367707 -0.15163101 -0.044126753 0.07222604 0.098599024 -0.13995814 0.0094237151
featur 0.011267653 -0.071865171 0.24990547 0.26269412 -0.014175312 0.18702687 -0.040432118 0.099347226 0.2505199 0.10799457 0.008922915 -0.2145977 0.079950444 -0.010809567 0.14072284 -0.38533977 0.077689432 0.16173057 0.11339449 -0.14020099 -0.078823067 0.098272368 -0.061969806 -0.17134917 -0.053269699 0.12391679 -0.06136512 -0.0099357488 -0.11224356 -0.071966924 0.22254239 -0.040719934 -0.068303429 -0.042873062 -0.099695385 0.20281245 0.28080872 0.11160012 -0.073073938 0.013152772 0.061484318 0.17188264 -0.18133257 0.022933431 -0.09067966 -0.20162399 -0.096464239 0.26882109 -0.051587015 0.31820688 0.15814148 -0.44458738 -0.2949416 -0.16633692 0.078379162 0.080117583 0.12016047 0.031092046 0.1502385 0.05949248 0.23261221 0.026935589 -0.0042464053 0.050380804 0.15321445 0.47668362 0.0056973095 -0.24028146 0.1055221 -0.4922134 -0.017110359 0.34005684 0.21411474 -0.048952114 0.15122153 0.065560997 0.2848886 -0.23427317 -0.25886008 0.0028967261 0.15808441 -0.2610057 0.14420432 -0.14387935 -0.23881622 0.04517043 0.13731256 0.18201488 -0.18846583 0.14458579 0.083225861 0.18404819 -0.089188814 -0.011165085 -0.15402287 -0.051143017 0.066187114 0.10425331 -0.13852242 0.0059555573
littl 0.017026696 -0.067467511 0.25415674 0.26515704 -0.015980922 0.18553087 -0.050718926 0.094369456 0.2498479 0.11337943 0.011936334 -0.21374516 0.07736025 -0.010006616 0.143093 -0.38919148 0.078362018 0.16981569 0.11461703 -0.14057413 -0.08146967 0.0923004 -0.058329843 -0.17011768 -0.052311957 0.11658446 -0.062298547 -0.015751574 -0.11250841 -0.066712804 0.2288902 -0.04041506 -0.068159655 -0.046625737 -0.098933347 0.2037283 0.28539112 0.11044376 -0.072021253 0.017729418 0.055464674 0.16842106 -0.18643041 0.025809415 -0.096278191 -0.20561484 -0.099570014 0.27388549 -0.055892829 0.32028604 0.16539298 -0.4460144 -0.29491344 -0.16883363 0.085187964 0.076505862 0.12028771 0.028559556 0.15691805 0.052721206 0.22926739 0.034142025 -0.0050242152 0.048611432 0.15884517 0.4820435 0.002901034 -0.24363881 0.10518897 -0.48843539 -0.018631583 0.34601036 0.21206188 -0.0425171 0.15134473 0.063052326 0.29025489 -0.23240393 -0.26577812 0.0017229287 0.16653046 -0.27020693 0.1386735 -0.14636689 -0.24522489 0.040483855 0.13615631 0.18685678 -0.18749949 0.14210843 0.079111092 0.19091585 -0.086439028 -0.0082131261 -0.15513918 -0.051013127 0.070697315 0.10374656 -0.13023153 0.0055384194
34; 0.016265744 -0.079152048 0.30060014 0.30413091 -0.015902104 0.21776502 -0.052352495 0.10840427 0.28932628 0.13947006 0.015499804 -0.25708252 0.093777299 -0.01406232 0.16737558 -0.46258724 0.094338492 0.1936025 0.12821253 -0.1584909 -0.10163833 0.11660169 -0.073001735 -0.19269532 -0.055360876 0.14350922 -0.077550694 -0.014921289 -0.13629864 -0.079709634 0.26497397 -0.050271541 -0.0856359 -0.047899511 -0.11035857 0.23721097 0.33003101 0.13308398 -0.084744141 0.021574488 0.076902114 0.20008805 -0.20850165 0.035284642 -0.11236504 -0.24498683 -0.11728629 0.32091475 -0.059978541 0.38333631 0.19742337 -0.52811134 -0.35416165 -0.20057198 0.10324308 0.088309683 0.14019023 0.035504784 0.18129884 0.072697178 0.26929599 0.039882824 -0.0011884365 0.057154872 0.18909232 0.55867964 0.0031522771 -0.2846078 0.1259411 -0.57947826 -0.019482721 0.39630139 0.25310603 -0.045880985 0.17513233 0.07458657 0.34068304 -0.27977869 -0.31084913 0.0085379528 0.18329625 -0.30492043 0.16824618 -0.17527172 -0.27872777 0.050528549 0.16658168 0.21942626 -0.22612897 0.17085619 0.091673113 0.218733 -0.093612686 -0.0057862601 -0.1823716 -0.050388739 0.079653978 0.12244185 -0.15654147 0.009340818
enjoy 0.018150596 -0.073788591 0.25246903 0.26226503 -0.020034172 0.18287951 -0.045265287 0.097969465 0.24181955 0.11668711 0.010376744 -0.22065689 0.084925994 -0.015590056 0.13899639 -0.38450029 0.083845884 0.16385704 0.11278632 -0.13411802 -0.088542089 0.091612294 -0.06328053 -0.16219459 -0.052477401 0.11742506 -0.068947025 -0.010070022 -0.10868478 -0.068114959 0.22476673 -0.04139974 -0.066798575 -0.039473064 -0.097371913 0.20116572 0.28204313 0.10525487 -0.069216408 0.01300923 0.059940785 0.17369899 -0.18284003 0.030613031 -0.092905395 -0.20869456 -0.099019922 0.27395347 -0.05333082 0.32318926 0.16672899 -0.44393381 -0.29960674 -0.16892198 0.081021167 0.080303811 0.11716639 0.031588044 0.15830883 0.050720662 0.23563153 0.0325942 0.0014916736 0.048539322 0.15717782 0.48170432 -0.001329925 -0.24013455 0.11305189 -0.48626566 -0.018828204 0.33631012 0.21055029 -0.046156589 0.15211257 0.064186543 0.29017282 -0.23703624 -0.26590779 0.0011200142 0.16148186 -0.26071081 0.14615056 -0.14428273 -0.23274638 0.039386187 0.14029123 0.18666451 -0.19315815 0.14374647 0.082361147 0.19280888 -0.082578324 -0.0047960714 -0.14794376 -0.051129606 0.063404538 0.10171724 -0.13014653 0.004198682
abl 0.010444871 -0.071444802 0.25130087 0.26490098 -0.012016337 0.18335652 -0.049308185 0.098618098 0.24892607 0.11459038 0.016497821 -0.21829534 0.080977157 -0.0095789256 0.1468306 -0.39551723 0.077682868 0.16314232 0.11649066 -0.14084563 -0.081896342 0.099714562 -0.061657302 -0.16413061 -0.048748966 0.11737815 -0.064368315 -0.0098779574 -0.11061949 -0.072892494 0.22233558 -0.039359141 -0.066194303 -0.037723981 -0.096186385 0.20647684 0.27887666 0.11461618 -0.074390702 0.014993964 0.059802935 0.17472841 -0.18625216 0.023013256 -0.091086611 -0.21037953 -0.10242514 0.26972067 -0.053597193 0.3264493 0.16850223 -0.45254493 -0.30553362 -0.16904475 0.081393488 0.078508869 0.1139992 0.026031887 0.15132171 0.0577402 0.23240171 0.033712685 0.0029010437 0.052608456 0.16015032 0.48775479 -0.0012443778 -0.24504951 0.11159617 -0.49788156 -0.023783993 0.34525585 0.22025752 -0.047134217 0.1525887 0.064100698 0.2918722 -0.23718494 -0.26265764 0.004966185 0.16282021 -0.26856348 0.14626944 -0.14153828 -0.23910907 0.048743077 0.13783333 0.18446943 -0.19150156 0.14498834 0.083840802 0.19514415 -0.08865951 -0.012861349 -0.157194 -0.043944944 0.072397672 0.098274067 -0.13970503 0.013748556
not 0.016634921 -0.076296248 0.2675164 0.27680704 -0.018108854 0.19183531 -0.051848166 0.09768679 0.25570786 0.12114037 0.013813246 -0.22202815 0.081819668 -0.012720447 0.14244084 -0.40813169 0.083684802 0.17049168 0.11720606 -0.14077669 -0.092758656 0.097080708 -0.070541076 -0.17508185 -0.056675736 0.12505202 -0.063744128 -0.0090575311 -0.11808769 -0.072976097 0.23738283 -0.038711492 -0.076039523 -0.045319982 -0.10124467 0.21315445 0.29191291 0.11360289 -0.076408982 0.013090196 0.067993052 0.1749828 -0.18742651 0.029184716 -0.10047818 -0.2174629 -0.094412304 0.28745249 -0.050180461 0.33211809 0.17747155 -0.46288121 -0.31623587 -0.18176077 0.093247578 0.085853554 0.12291307 0.027688267 0.16135144 0.063486651 0.2408881 0.031863343 -0.0036800739 0.046317831 0.16828617 0.50405562 0.00060997566 -0.25105685 0.10945874 -0.51230282 -0.014138996 0.35942185 0.22696023 -0.047908001 0.16140252 0.060333569 0.29992923 -0.2434112 -0.27285713 0.0076550599 0.16869779 -0.27091834 0.14524557 -0.151062 -0.25391647 0.051046249 0.14803305 0.19466326 -0.20253965 0.15485032 0.086791724 0.19719273 -0.091482945 -0.0131101 -0.16248253 -0.052267861 0.066718511 0.10934897 -0.13985001 0.0049832338
say 0.013389193 -0.06847088 0.26997891 0.27489051 -0.01844278 0.18834999 -0.042468555 0.099077024 0.2637327 0.11882808 0.010554549 -0.22800992 0.087683529 -0.016751146 0.15025972 -0.41140157 0.08827503 0.17014955 0.1134402 -0.14221346 -0.08961504 0.10530457 -0.071424268 -0.17230466 -0.047489133 0.12896036 -0.065116212 -0.012797145 -0.11840006 -0.07536637 0.24148948 -0.040616337 -0.075593054 -0.040646579 -0.099339187 0.21170874 0.29332152 0.11108493 -0.079172798 0.019102495 0.062031209 0.18365517 -0.193956 0.026927505 -0.10044217 -0.22070086 -0.10078759 0.28181255 -0.058963303 0.33767205 0.1739741 -0.46639225 -0.31776512 -0.18187828 0.091287181 0.087205552 0.11859245 0.025343299 0.16084111 0.066151418 0.24552552 0.029706113 0.0014104701 0.04800776 0.16235921 0.50644034 0.00099205866 -0.25261322 0.11557543 -0.51742584 -0.024430325 0.35373843 0.22029154 -0.047685362 0.16016778 0.064899467 0.30024955 -0.24923967 -0.28172678 0.006906217 0.1686703 -0.27914962 0.15151833 -0.1505753 -0.25109732 0.051830392 0.150324 0.19983618 -0.20816143 0.15055004 0.083552755 0.19528426 -0.089567855 -0.0057778051 -0.16348088 -0.048994262 0.066130541 0.10208543 -0.14049619 0.014077058
look 0.01463428 -0.071414001 0.27309826 0.28012028 -0.014292637 0.19789304 -0.045561805 0.099807948 0.26521349 0.12016349 0.0094076209 -0.23205858 0.081613511 -0.013453693 0.14671101 -0.40653726 0.091423109 0.17815372 0.1160028 -0.14538684 -0.087807648 0.10506134 -0.064661317 -0.18167345 -0.048909672 0.12548782 -0.067489363 -0.0079352669 -0.11959771 -0.075211175 0.23957163 -0.043817163 -0.073086023 -0.041716889 -0.10450988 0.21026674 0.29475451 0.1165669 -0.08141239 0.018938793 0.068304792 0.17639595 -0.19115573 0.023785353 -0.094912775 -0.2165103 -0.096854374 0.29088262 -0.052415136 0.33395785 0.16898309 -0.46729118 -0.31053886 -0.17515846 0.084181093 0.084395386 0.11856509 0.02894246 0.16483119 0.054535151 0.24951892 0.037695441 -0.0046282872 0.046453081 0.17105825 0.50973713 0.001772046 -0.25286815 0.11508942 -0.51728803 -0.023859432 0.36664179 0.22935852 -0.04303227 0.16207318 0.068142809 0.30555624 -0.2426618 -0.275316 0.0066447221 0.16908328 -0.28190696 0.14568967 -0.14944077 -0.25031379 0.043769602 0.14947 0.19454297 -0.20161501 0.15633617 0.081048422 0.20010416 -0.090526931 -0.0080453912 -0.15759835 -0.044064924 0.072121821 0.10284242 -0.14391436 0.0093103945
know 0.011529734 -0.067870356 0.27350226 0.27738655 -0.022784408 0.1909412 -0.046886686 0.10811893 0.25968289 0.11450814 0.015466003 -0.22722088 0.081174038 -0.015641378 0.14885621 -0.40423277 0.088977151 0.17061286 0.1163536 -0.14829357 -0.086393476 0.1028522 -0.071663804 -0.17479968 -0.055369627 0.12495436 -0.071390294 -0.011248347 -0.11296342 -0.076827019 0.24049447 -0.035243418 -0.074858584 -0.046744552 -0.10275722 0.21098803 0.29995266 0.1144884 -0.079168387 0.01400323 0.066763408 0.17558227 -0.18943284 0.035019796 -0.098462999 -0.22089595 -0.10360453 0.28449327 -0.051905233 0.33986539 0.16819739 -0.4716759 -0.31864607 -0.18323608 0.092437111 0.082502887 0.12341146 0.02753141 0.1650735 0.062612034 0.24796201 0.03846788 -0.0028028078 0.054305345 0.16802204 0.50257659 0.0016418967 -0.25543824 0.11514308 -0.51411247 -0.016482186 0.35661897 0.21976271 -0.044384256 0.16320871 0.061925113 0.3065246 -0.24952666 -0.27224696 0.0049056015 0.16419408 -0.2737309 0.14335939 -0.15319875 -0.24686515 0.045362633 0.14880492 0.19818401 -0.20663942 0.14874485 0.080124907 0.20173332 -0.08698342 -0.013086689 -0.15759659 -0.046037849 0.066720448 0.10886861 -0.14412515 0.0080936654
weather 0.0090701608 -0.07196705 0.2623646 0.27250153 -0.017472107 0.19596097 -0.04970248 0.10531607 0.25908947 0.12377547 0.014990753 -0.22639613 0.086079419 -0.012353393 0.1431621 -0.40911525 0.083039425 0.1757426 0.11775828 -0.14596498 -0.08391349 0.10416786 -0.070364609 -0.17836146 -0.057092696 0.12346352 -0.071845211 -0.01657868 -0.1196336 -0.073614143 0.23730227 -0.043087773 -0.06583976 -0.043532971 -0.10393683 0.21239914 0.29654703 0.1168483 -0.077573635 0.015164966 0.0639221 0.18070446 -0.19469561 0.03002798 -0.097189859 -0.21222746 -0.10156915 0.28371423 -0.056128215 0.33748338 0.17297257 -0.46360353 -0.31924954 -0.18223232 0.093739808 0.083871886 0.12550659 0.035190694 0.16400641 0.058733966 0.24180765 0.030841473 0.00031030728 0.04987549 0.16584127 0.50907034 0.0045304014 -0.25393456 0.11559776 -0.52185255 -0.020535799 0.36170211 0.22579409 -0.047848791 0.16178901 0.070849113 0.30876285 -0.24366683 -0.27293509 0.00018552222 0.16811514 -0.27796617 0.1500583 -0.15401925 -0.25258672 0.044265784 0.14754371 0.19293532 -0.19928029 0.15109074 0.086324714 0.19825399 -0.085070834 -0.010079559 -0.16727406 -0.048799954 0.070267826 0.10022151 -0.1462227 0.0064907069
spot 0.016126676 -0.078456692 0.2634882 0.26271048 -0.010623617 0.19350691 -0.043175276 0.094606593 0.2566801 0.1128003 0.018537391 -0.21872419 0.086844854 -0.013904705 0.14629336 -0.40078986 0.086227149 0.16877936 0.11336888 -0.13845666 -0.087694339 0.097382121 -0.063252486 -0.17383434 -0.05210422 0.11954806 -0.065039575 -0.014050065 -0.1163883 -0.077185512 0.22561759 -0.04016339 -0.068783827 -0.043454479 -0.10109348 0.20441008 0.28289253 0.11528047 -0.079208687 0.021082716 0.057537671 0.17657711 -0.18077847 0.026330072 -0.095558256 -0.20459403 -0.10004346 0.27545741 -0.056748305 0.3268809 0.16518727 -0.45398033 -0.3029657 -0.17844296 0.086485304 0.083059199 0.12159239 0.033239175 0.16145194 0.058384817 0.2420963 0.031922422 -0.0039199181 0.052744098 0.16734472 0.49660939 0.0080635333 -0.24544264 0.11315925 -0.5011695 -0.016530424 0.35527208 0.22109202 -0.047482368 0.15823458 0.067338154 0.29237279 -0.23879673 -0.27151924 0.0073840916 0.16977082 -0.27378827 0.14778502 -0.15105887 -0.24887088 0.044989344 0.1416826 0.19344655 -0.19772592 0.14357591 0.082892962 0.19837902 -0.089346789 -0.0088388585 -0.16061254 -0.042307857 0.064803153 0.10491104 -0.1434429 0.01507086
perfect 0.013766986 -0.065801352 0.228324 0.22876117 -0.018009953 0.15946421 -0.043786049 0.090840183 0.2151832 0.10093117 0.0090078674 -0.18951456 0.068547517 -0.015851768 0.12111793 -0.34808224 0.076664902 0.14764352 0.10242664 -0.12456936 -0.071007453 0.085845277 -0.059806146 -0.1530876 -0.048372261 0.10447937 -0.057531055 -0.01366694 -0.094215363 -0.057894967 0.19218965 -0.029412406 -0.063366503 -0.032276347 -0.088037521 0.17440526 0.24720407 0.093288071 -0.059402369 0.007750662 0.052464347 0.14854729 -0.16459788 0.027097438 -0.082046434 -0.18263216 -0.088693544 0.23691659 -0.048530217 0.28230172 0.14752093 -0.39613986 -0.26211044 -0.14802457 0.078271583 0.07486292 0.097008437 0.028172938 0.13409814 0.054424517 0.20384341 0.033877954 0.0036944484 0.044908561 0.14182551 0.42760646 0.001064267 -0.20961675 0.091591842 -0.43744922 -0.011103437 0.30207151 0.18761219 -0.037692204 0.13073026 0.057734821 0.25141579 -0.20758538 -0.2285378 0.0066932305 0.14516217 -0.22991665 0.12259303 -0.12356731 -0.21050258 0.041068718 0.12346122 0.1631819 -0.17197327 0.12788177 0.070468642 0.17172299 -0.078783266 -0.011479269 -0.13453521 -0.046265729 0.06008656 0.085868344 -0.1186823 0.0019013388
voic 0.014736963 -0.066297852 0.25180015 0.26012656 -0.020036096 0.18306884 -0.042529322 0.095941171 0.24744482 0.11174294 0.013554011 -0.21725023 0.080552272 -0.014663557 0.14477304 -0.38494858 0.079457313 0.16290897 0.11090156 -0.14124912 -0.080301411 0.095228985 -0.059281379 -0.16878708 -0.04961561 0.1248166 -0.060968559 -0.0089120856 -0.108657 -0.075441465 0.22211933 -0.031898201 -0.068674527 -0.044879124 -0.093961902 0.19874044 0.27451795 0.10913882 -0.070307478 0.010553765 0.056884091 0.16931134 -0.17705278 0.021679424 -0.089892372 -0.2032083 -0.091722883 0.26753327 -0.054552134 0.32352996 0.1635467 -0.44222185 -0.30158019 -0.16553237 0.087462254 0.079454631 0.11410487 0.03341211 0.15554748 0.053810839 0.23095255 0.034488723 -0.0040367502 0.042205945 0.15964428 0.47894663 0.0018767745 -0.23413278 0.10266068 -0.48826334 -0.022399336 0.33774948 0.21630944 -0.04092712 0.15328154 0.065804809 0.28558615 -0.237353 -0.26181677 0.0049982117 0.16209589 -0.25935316 0.14278676 -0.14723672 -0.23683919 0.042774636 0.14066038 0.18009435 -0.19463676 0.14771137 0.077569462 0.18900932 -0.085751176 -0.01251091 -0.14999947 -0.050896052 0.063985378 0.098213159 -0.13310777 0.0065660467
clock 0.011517317 -0.080066673 0.27385032 0.2936686 -0.016588289 0.20817406 -0.050813571 0.11134638 0.27764732 0.12153823 0.011113934 -0.23839962 0.089726135 -0.017974382 0.14987889 -0.43290296 0.091948844 0.18124604 0.12761667 -0.15232649 -0.086912259 0.11167638 -0.074973829 -0.18524759 -0.052729074 0.13407294 -0.076117679 -0.017157935 -0.12881945 -0.074177235 0.24780375 -0.048138294 -0.07458175 -0.048450463 -0.10504267 0.22336146 0.30913422 0.11887697 -0.077321343 0.013171175 0.070791721 0.19436407 -0.20347139 0.026149824 -0.097288504 -0.22688936 -0.11012967 0.29697981 -0.053507704 0.35500076 0.17424722 -0.48820406 -0.32611033 -0.18266353 0.088292994 0.093456462 0.12654963 0.028356085 0.17459907 0.06649255 0.25629643 0.037652884 -0.0039005612 0.057229083 0.17989123 0.52304691 0.0054713404 -0.26850432 0.11497258 -0.54452497 -0.015676444 0.36818483 0.23730589 -0.050133698 0.16217443 0.067518592 0.32222238 -0.2626456 -0.28386199 0.0017146704 0.18195631 -0.29790348 0.15079652 -0.16111106 -0.25733215 0.048365127 0.15435492 0.20640138 -0.21048634 0.15371026 0.085188709 0.20534432 -0.087550834 -0.0044996873 -0.17070964 -0.047308214 0.073705375 0.10748392 -0.14894533 0.012454015
